booster[0]
0:[f23601<26.95] yes=1,no=2,missing=1,gain=2.95475e+006,cover=24116
	1:[f22175<4.5] yes=3,no=4,missing=3,gain=765634,cover=22298
		3:[f22994<0.5085] yes=7,no=8,missing=7,gain=261876,cover=7281
			7:[f22173<800] yes=15,no=16,missing=16,gain=242009,cover=7274
				15:[f22612<-1e-005] yes=29,no=30,missing=29,gain=108174,cover=2149
					29:[f18890<-1e-005] yes=47,no=48,missing=47,gain=60655.7,cover=2146
						47:[f22172<69.5] yes=79,no=80,missing=80,gain=32290.3,cover=2143
							79:[f19733<-1e-005] yes=125,no=126,missing=125,gain=15988.7,cover=1084
								125:[f19709<-1e-005] yes=201,no=202,missing=201,gain=9336.66,cover=1018
									201:[f22175<1.5] yes=319,no=320,missing=319,gain=5780.79,cover=944
										319:leaf=9.78238,cover=903
										320:leaf=21.8939,cover=41
									202:[f22172<11] yes=321,no=322,missing=322,gain=13886.9,cover=74
										321:leaf=46.3892,cover=17
										322:leaf=14.052,cover=57
								126:[f23176<-1e-005] yes=203,no=204,missing=203,gain=12961.3,cover=66
									203:[f17789<-1e-005] yes=323,no=324,missing=323,gain=9288.06,cover=64
										323:leaf=20.3106,cover=61
										324:leaf=71.496,cover=3
									204:leaf=92.8703,cover=2
							80:[f23029<-1e-005] yes=127,no=128,missing=127,gain=1615.77,cover=1059
								127:[f23601<17.465] yes=205,no=206,missing=205,gain=1462.3,cover=1056
									205:[f22172<378] yes=325,no=326,missing=325,gain=749.02,cover=786
										325:leaf=4.51534,cover=442
										326:leaf=2.53278,cover=344
									206:[f23603<87.5] yes=327,no=328,missing=328,gain=489.524,cover=270
										327:leaf=5.27504,cover=171
										328:leaf=8.16972,cover=99
								128:leaf=24.6086,cover=3
						48:leaf=131.696,cover=3
					30:[f11791<-1e-005] yes=49,no=50,missing=49,gain=16762.1,cover=3
						49:leaf=212.345,cover=2
						50:leaf=28.0046,cover=1
				16:[f22175<1.5] yes=31,no=32,missing=31,gain=174068,cover=5125
					31:[f23642<-1e-005] yes=51,no=52,missing=51,gain=80230.7,cover=2604
						51:[f22172<26076] yes=81,no=82,missing=82,gain=50087.5,cover=2599
							81:[f23347<-1e-005] yes=129,no=130,missing=129,gain=63895.4,cover=912
								129:[f20849<-1e-005] yes=207,no=208,missing=207,gain=22310.6,cover=894
									207:[f19725<-1e-005] yes=329,no=330,missing=329,gain=17601.4,cover=892
										329:leaf=32.784,cover=816
										330:leaf=16.5315,cover=76
									208:leaf=119.729,cover=2
								130:[f23604<2.5] yes=209,no=210,missing=210,gain=9431.82,cover=18
									209:[f17107<-1e-005] yes=331,no=332,missing=331,gain=66.7346,cover=4
										331:leaf=39.1295,cover=3
										332:leaf=10.2578,cover=1
									210:[f3292<-1e-005] yes=333,no=334,missing=333,gain=7029.53,cover=14
										333:leaf=109.151,cover=13
										334:leaf=10.5068,cover=1
							82:[f22176<1.5] yes=131,no=132,missing=132,gain=12397.8,cover=1687
								131:[f4058<-1e-005] yes=211,no=212,missing=211,gain=2866.32,cover=500
									211:[f19725<-1e-005] yes=335,no=336,missing=335,gain=898.253,cover=499
										335:leaf=27.9568,cover=492
										336:leaf=13.3987,cover=7
									212:leaf=70.5798,cover=1
								132:[f23611<-1e-005] yes=213,no=214,missing=213,gain=906.021,cover=1187
									213:leaf=20.9309,cover=644
									214:[f19725<-1e-005] yes=337,no=338,missing=337,gain=246.484,cover=543
										337:leaf=23.2199,cover=534
										338:leaf=14.3113,cover=9
						52:[f23611<-1e-005] yes=83,no=84,missing=83,gain=7873.73,cover=5
							83:leaf=175.096,cover=3
							84:leaf=53.1805,cover=2
					32:[f23620<-1e-005] yes=53,no=54,missing=53,gain=88595.2,cover=2521
						53:[f19709<-1e-005] yes=85,no=86,missing=85,gain=29017.7,cover=2501
							85:[f19732<-1e-005] yes=133,no=134,missing=133,gain=19884.6,cover=2476
								133:[f22176<1.5] yes=215,no=216,missing=216,gain=15356.9,cover=2440
									215:[f23108<0.1955] yes=339,no=340,missing=339,gain=10990,cover=756
										339:leaf=17.7519,cover=751
										340:leaf=61.3566,cover=5
									216:[f856<-1e-005] yes=341,no=342,missing=341,gain=6106.67,cover=1684
										341:leaf=12.5885,cover=1683
										342:leaf=68.599,cover=1
								134:[f22175<2.5] yes=217,no=218,missing=217,gain=2394.5,cover=36
									217:leaf=52.4931,cover=10
									218:[f22176<1.5] yes=343,no=344,missing=344,gain=826.757,cover=26
										343:leaf=37.2296,cover=13
										344:leaf=21.5438,cover=13
							86:[f10580<-1e-005] yes=135,no=136,missing=135,gain=5100.18,cover=25
								135:[f22177<1.5] yes=219,no=220,missing=219,gain=721.118,cover=22
									219:[f22175<3.5] yes=345,no=346,missing=345,gain=123.766,cover=17
										345:leaf=48.2172,cover=12
										346:leaf=26.5331,cover=5
									220:leaf=21.3794,cover=5
								136:leaf=86.2242,cover=3
						54:[f23602<2.03] yes=87,no=88,missing=87,gain=7430.29,cover=20
							87:leaf=54.0376,cover=11
							88:leaf=103.968,cover=9
			8:[f17387<-1e-005] yes=17,no=18,missing=17,gain=32446,cover=7
				17:leaf=223.19,cover=6
				18:leaf=14.6757,cover=1
		4:[f22175<9.5] yes=9,no=10,missing=9,gain=68395.9,cover=15017
			9:[f23620<-1e-005] yes=19,no=20,missing=19,gain=25210.6,cover=3167
				19:[f22172<21.5] yes=33,no=34,missing=34,gain=15911.8,cover=3153
					33:[f22694<15.4] yes=55,no=56,missing=55,gain=11617.9,cover=1253
						55:[f22175<5.5] yes=89,no=90,missing=89,gain=8376.37,cover=431
							89:[f19719<-1e-005] yes=137,no=138,missing=137,gain=10230.8,cover=239
								137:[f23559<-1e-005] yes=221,no=222,missing=221,gain=3383.82,cover=150
									221:[f22888<0.284] yes=347,no=348,missing=347,gain=2837.28,cover=147
										347:leaf=13.5527,cover=145
										348:leaf=45.7125,cover=2
									222:leaf=44.7549,cover=3
								138:[f23605<25.4] yes=223,no=224,missing=224,gain=595.889,cover=89
									223:[f23611<-1e-005] yes=349,no=350,missing=349,gain=234.956,cover=83
										349:leaf=23.9672,cover=25
										350:leaf=31.8108,cover=58
									224:leaf=14.9161,cover=6
							90:[f23387<-1e-005] yes=139,no=140,missing=139,gain=4360.63,cover=192
								139:[f19733<-1e-005] yes=225,no=226,missing=225,gain=1492.04,cover=183
									225:[f8332<-1e-005] yes=351,no=352,missing=351,gain=631.297,cover=144
										351:leaf=8.32633,cover=143
										352:leaf=27.2381,cover=1
									226:[f23601<11.11] yes=353,no=354,missing=353,gain=1285.43,cover=39
										353:leaf=11.9278,cover=30
										354:leaf=26.1454,cover=9
								140:[f19733<-1e-005] yes=227,no=228,missing=227,gain=810.146,cover=9
									227:leaf=8.54746,cover=2
									228:leaf=36.7969,cover=7
						56:[f22172<3.5] yes=91,no=92,missing=92,gain=5515.83,cover=822
							91:[f22178<2.00001] yes=141,no=142,missing=142,gain=1131.99,cover=599
								141:[f22565<-1e-005] yes=229,no=230,missing=229,gain=332.481,cover=248
									229:[f23344<-1e-005] yes=355,no=356,missing=355,gain=174.507,cover=245
										355:leaf=9.56492,cover=233
										356:leaf=14.2573,cover=12
									230:leaf=20.3437,cover=3
								142:[f23603<175.5] yes=231,no=232,missing=231,gain=171.986,cover=351
									231:[f17385<-1e-005] yes=357,no=358,missing=357,gain=176.622,cover=337
										357:leaf=6.89085,cover=334
										358:leaf=14.4436,cover=3
									232:[f19719<-1e-005] yes=359,no=360,missing=359,gain=17.6126,cover=14
										359:leaf=12.4688,cover=9
										360:leaf=6.58253,cover=5
							92:[f23076<0.0155] yes=143,no=144,missing=143,gain=5552.29,cover=223
								143:[f23345<-1e-005] yes=233,no=234,missing=233,gain=377.813,cover=143
									233:[f23603<86.5] yes=361,no=362,missing=362,gain=277.999,cover=141
										361:leaf=8.92842,cover=99
										362:leaf=12.4768,cover=42
									234:leaf=22.9182,cover=2
								144:[f22178<2.00001] yes=235,no=236,missing=236,gain=1732.68,cover=80
									235:[f23289<-1e-005] yes=363,no=364,missing=363,gain=1143.92,cover=42
										363:leaf=34.3166,cover=13
										364:leaf=20.6483,cover=29
									236:[f23603<86.5] yes=365,no=366,missing=366,gain=157.49,cover=38
										365:leaf=9.52952,cover=9
										366:leaf=16.6976,cover=29
					34:[f22176<1.5] yes=57,no=58,missing=58,gain=5998.79,cover=1900
						57:[f18046<-1e-005] yes=93,no=94,missing=93,gain=1383.94,cover=613
							93:[f22922<-1e-005] yes=145,no=146,missing=145,gain=1090.28,cover=611
								145:[f17823<-1e-005] yes=237,no=238,missing=237,gain=491.887,cover=609
									237:[f23317<17.46] yes=367,no=368,missing=368,gain=364.779,cover=607
										367:leaf=17.4164,cover=7
										368:leaf=9.76448,cover=600
									238:leaf=23.9522,cover=2
								146:leaf=29.9466,cover=2
							94:leaf=32.4059,cover=2
						58:[f23611<-1e-005] yes=95,no=96,missing=95,gain=527.162,cover=1287
							95:[f23603<95.5] yes=147,no=148,missing=147,gain=68.557,cover=673
								147:[f3907<-1e-005] yes=239,no=240,missing=239,gain=11.1221,cover=334
									239:[f11489<-1e-005] yes=369,no=370,missing=369,gain=0.582639,cover=333
										369:leaf=5.36884,cover=332
										370:leaf=1.5333,cover=1
									240:leaf=0.894817,cover=1
								148:[f22172<605] yes=241,no=242,missing=242,gain=26.9656,cover=339
									241:[f9892<-1e-005] yes=371,no=372,missing=371,gain=29.6179,cover=14
										371:leaf=8.5313,cover=13
										372:leaf=1.29404,cover=1
									242:[f22175<5.5] yes=373,no=374,missing=373,gain=31.6141,cover=325
										373:leaf=6.04135,cover=323
										374:leaf=1.26913,cover=2
							96:[f23069<5008] yes=149,no=150,missing=149,gain=306.938,cover=614
								149:leaf=8.92051,cover=88
								150:[f19727<-1e-005] yes=243,no=244,missing=243,gain=40.775,cover=526
									243:[f7069<-1e-005] yes=375,no=376,missing=375,gain=39.7945,cover=524
										375:leaf=6.72954,cover=522
										376:leaf=1.39896,cover=2
									244:leaf=12.0913,cover=2
				20:leaf=50.6275,cover=14
			10:[f4058<-1e-005] yes=21,no=22,missing=21,gain=29861.6,cover=11850
				21:[f22176<1.5] yes=35,no=36,missing=36,gain=23679,cover=11847
					35:[f18046<-1e-005] yes=59,no=60,missing=59,gain=11491.9,cover=3857
						59:[f23099<7.365] yes=97,no=98,missing=97,gain=7024.4,cover=3848
							97:[f22608<0.393] yes=151,no=152,missing=151,gain=6983.42,cover=3736
								151:[f22175<19.5] yes=245,no=246,missing=245,gain=4419.76,cover=3699
									245:[f8698<-1e-005] yes=377,no=378,missing=377,gain=1657.36,cover=818
										377:leaf=7.92073,cover=816
										378:leaf=31.92,cover=2
									246:[f22627<-1e-005] yes=379,no=380,missing=379,gain=2873.77,cover=2881
										379:leaf=5.30081,cover=2867
										380:leaf=19.2479,cover=14
								152:[f23603<79.5] yes=247,no=248,missing=248,gain=1391.86,cover=37
									247:[f22172<136] yes=381,no=382,missing=382,gain=441.256,cover=29
										381:leaf=18.6354,cover=18
										382:leaf=9.07833,cover=11
									248:[f14651<-1e-005] yes=383,no=384,missing=383,gain=26.6579,cover=8
										383:leaf=33.0508,cover=7
										384:leaf=9.14223,cover=1
							98:[f15528<-1e-005] yes=153,no=154,missing=153,gain=2613.06,cover=112
								153:[f22177<2.00001] yes=249,no=250,missing=250,gain=3553.07,cover=108
									249:[f23603<99.5] yes=385,no=386,missing=386,gain=2407.31,cover=50
										385:leaf=11.4188,cover=25
										386:leaf=26.0008,cover=25
									250:[f22175<24.5] yes=387,no=388,missing=387,gain=284.068,cover=58
										387:leaf=10.3042,cover=22
										388:leaf=5.42133,cover=36
								154:leaf=37.1884,cover=4
						60:leaf=40.3442,cover=9
					36:[f22175<19.5] yes=61,no=62,missing=61,gain=5822.94,cover=7990
						61:[f19733<-1e-005] yes=99,no=100,missing=99,gain=1609.43,cover=1746
							99:[f23603<114.5] yes=155,no=156,missing=156,gain=457.93,cover=429
								155:[f22435<4.5] yes=251,no=252,missing=251,gain=208.449,cover=301
									251:[f22174<-1e-005] yes=389,no=390,missing=389,gain=169.027,cover=291
										389:leaf=4.22378,cover=64
										390:leaf=6.22497,cover=227
									252:leaf=10.6011,cover=10
								156:[f23602<2.26] yes=253,no=254,missing=253,gain=80.7982,cover=128
									253:[f23387<-1e-005] yes=391,no=392,missing=391,gain=80.9269,cover=121
										391:leaf=7.59263,cover=110
										392:leaf=11.2472,cover=11
									254:leaf=12.4849,cover=7
							100:[f23229<0.69601] yes=157,no=158,missing=158,gain=666.22,cover=1317
								157:[f23605<296.75] yes=255,no=256,missing=255,gain=245.782,cover=69
									255:leaf=6.97575,cover=67
									256:leaf=17.2187,cover=2
								158:[f23611<-1e-005] yes=257,no=258,missing=257,gain=347.627,cover=1248
									257:[f23603<119.5] yes=393,no=394,missing=394,gain=93.1351,cover=701
										393:leaf=3.52097,cover=454
										394:leaf=4.33999,cover=247
									258:[f22178<1.5] yes=395,no=396,missing=396,gain=218.917,cover=547
										395:leaf=10.7505,cover=6
										396:leaf=4.82144,cover=541
						62:[f23229<0.69601] yes=101,no=102,missing=102,gain=1963.45,cover=6244
							101:[f23180<34.45] yes=159,no=160,missing=160,gain=196.035,cover=376
								159:[f23603<182.5] yes=259,no=260,missing=260,gain=119.888,cover=323
									259:[f22175<22.5] yes=397,no=398,missing=397,gain=51.941,cover=226
										397:leaf=3.47361,cover=62
										398:leaf=4.7232,cover=164
									260:[f13015<-1e-005] yes=399,no=400,missing=399,gain=5.0001,cover=97
										399:leaf=5.87509,cover=96
										400:leaf=1.4248,cover=1
								160:[f21937<-1e-005] yes=261,no=262,missing=261,gain=92.8001,cover=53
									261:[f21649<-1e-005] yes=401,no=402,missing=401,gain=27.6779,cover=32
										401:leaf=8.82543,cover=26
										402:leaf=4.72817,cover=6
									262:leaf=4.94977,cover=21
							102:[f23602<1.445] yes=161,no=162,missing=161,gain=1096.42,cover=5868
								161:[f23603<121.5] yes=263,no=264,missing=263,gain=440.644,cover=4424
									263:[f23073<-1e-005] yes=403,no=404,missing=403,gain=424.425,cover=3170
										403:leaf=2.06312,cover=1889
										404:leaf=2.81343,cover=1281
									264:[f22689<-1e-005] yes=405,no=406,missing=405,gain=170.816,cover=1254
										405:leaf=2.86097,cover=962
										406:leaf=3.75672,cover=292
								162:[f22435<3.5] yes=265,no=266,missing=266,gain=707.052,cover=1444
									265:[f19105<-1e-005] yes=407,no=408,missing=407,gain=39.3173,cover=20
										407:leaf=10.4077,cover=15
										408:leaf=5.09042,cover=5
									266:[f23603<75.5] yes=409,no=410,missing=410,gain=500.838,cover=1424
										409:leaf=2.89423,cover=724
										410:leaf=4.09396,cover=700
				22:leaf=90.8397,cover=3
	2:[f22172<15.5] yes=5,no=6,missing=6,gain=2.02059e+006,cover=1818
		5:[f20897<-1e-005] yes=11,no=12,missing=11,gain=1.37966e+006,cover=705
			11:[f22177<1.5] yes=23,no=24,missing=24,gain=948817,cover=701
				23:[f19709<-1e-005] yes=37,no=38,missing=37,gain=816886,cover=216
					37:[f22175<1.5] yes=63,no=64,missing=63,gain=335641,cover=175
						63:[f19733<-1e-005] yes=103,no=104,missing=103,gain=221496,cover=56
							103:[f23603<99] yes=163,no=164,missing=164,gain=63514.1,cover=21
								163:[f17569<-1e-005] yes=267,no=268,missing=267,gain=11173,cover=12
									267:[f22994<0.1685] yes=411,no=412,missing=412,gain=585.177,cover=11
										411:leaf=10.9584,cover=5
										412:leaf=28.9627,cover=6
									268:leaf=107.624,cover=1
								164:[f19725<-1e-005] yes=269,no=270,missing=269,gain=33884,cover=9
									269:[f18256<-1e-005] yes=413,no=414,missing=413,gain=15280.5,cover=7
										413:leaf=208.292,cover=5
										414:leaf=60.4343,cover=2
									270:leaf=21.2712,cover=2
							104:[f22173<2.00001] yes=165,no=166,missing=166,gain=132882,cover=35
								165:[f23341<-1e-005] yes=271,no=272,missing=271,gain=32738.3,cover=17
									271:[f23603<42.5] yes=415,no=416,missing=416,gain=22860.2,cover=14
										415:leaf=41.4884,cover=2
										416:leaf=183.386,cover=12
									272:leaf=37.2113,cover=3
								166:[f23091<-1e-005] yes=273,no=274,missing=273,gain=27666.5,cover=18
									273:[f4539<-1e-005] yes=417,no=418,missing=417,gain=4484.75,cover=16
										417:leaf=312.774,cover=15
										418:leaf=85.2858,cover=1
									274:leaf=99.9988,cover=2
						64:[f19725<-1e-005] yes=105,no=106,missing=105,gain=73397.8,cover=119
							105:[f22175<6.5] yes=167,no=168,missing=167,gain=73120.6,cover=102
								167:[f22173<4] yes=275,no=276,missing=275,gain=20194.2,cover=66
									275:[f23605<57.15] yes=419,no=420,missing=419,gain=14222.1,cover=57
										419:leaf=45.8033,cover=4
										420:leaf=124.508,cover=53
									276:[f9210<-1e-005] yes=421,no=422,missing=421,gain=129.235,cover=9
										421:leaf=60.7534,cover=8
										422:leaf=16.6176,cover=1
								168:[f22175<17.5] yes=277,no=278,missing=277,gain=5885.12,cover=36
									277:[f22888<0.012] yes=423,no=424,missing=423,gain=1625.84,cover=30
										423:leaf=63.2509,cover=26
										424:leaf=28.5568,cover=4
									278:[f11483<-1e-005] yes=425,no=426,missing=425,gain=26.4747,cover=6
										425:leaf=22.1259,cover=5
										426:leaf=5.82045,cover=1
							106:[f15066<-1e-005] yes=169,no=170,missing=169,gain=461.732,cover=17
								169:leaf=24.2197,cover=11
								170:leaf=10.3738,cover=6
					38:[f22175<2.5] yes=65,no=66,missing=65,gain=142546,cover=41
						65:[f23603<124.5] yes=107,no=108,missing=108,gain=90956,cover=26
							107:[f23603<29.5] yes=171,no=172,missing=172,gain=45071.2,cover=16
								171:[f9106<-1e-005] yes=279,no=280,missing=279,gain=4435.71,cover=8
									279:leaf=318.875,cover=7
									280:leaf=85.9396,cover=1
								172:[f22610<-1e-005] yes=281,no=282,missing=281,gain=23720.5,cover=8
									281:leaf=71.0516,cover=4
									282:leaf=205.064,cover=4
							108:[f13978<-1e-005] yes=173,no=174,missing=173,gain=29997.9,cover=10
								173:leaf=430.814,cover=9
								174:leaf=98.7384,cover=1
						66:leaf=172.843,cover=15
				24:[f22175<2.5] yes=39,no=40,missing=39,gain=311555,cover=485
					39:[f22173<20] yes=67,no=68,missing=68,gain=308560,cover=276
						67:[f22691<-1e-005] yes=109,no=110,missing=109,gain=163943,cover=201
							109:[f22434<1.5] yes=175,no=176,missing=176,gain=52274.7,cover=199
								175:[f23661<2.00001] yes=283,no=284,missing=284,gain=21238.1,cover=61
									283:[f1151<-1e-005] yes=427,no=428,missing=427,gain=3.53562,cover=3
										427:leaf=4.01275,cover=2
										428:leaf=0.757105,cover=1
									284:[f23608<-1e-005] yes=429,no=430,missing=429,gain=15766.1,cover=58
										429:leaf=82.6377,cover=53
										430:leaf=149.128,cover=5
								176:[f3747<-1e-005] yes=285,no=286,missing=285,gain=27711.8,cover=138
									285:[f23605<88.9] yes=431,no=432,missing=432,gain=22162.2,cover=137
										431:leaf=21.5553,cover=27
										432:leaf=54.6441,cover=110
									286:leaf=172.176,cover=1
							110:leaf=300.507,cover=2
						68:[f19725<-1e-005] yes=111,no=112,missing=111,gain=166165,cover=75
							111:[f14118<-1e-005] yes=177,no=178,missing=177,gain=78820,cover=65
								177:[f22175<1.5] yes=287,no=288,missing=287,gain=55177.4,cover=63
									287:[f23611<-1e-005] yes=433,no=434,missing=433,gain=69981,cover=36
										433:leaf=196.15,cover=30
										434:leaf=63.6387,cover=6
									288:[f19737<-1e-005] yes=435,no=436,missing=435,gain=15234.8,cover=27
										435:leaf=113.431,cover=25
										436:leaf=14.6082,cover=2
								178:leaf=339.173,cover=2
							112:[f23603<85.5] yes=179,no=180,missing=180,gain=372.033,cover=10
								179:leaf=8.51873,cover=4
								180:leaf=24.1314,cover=6
					40:[f22175<5.5] yes=69,no=70,missing=69,gain=34805.2,cover=209
						69:[f23603<203.5] yes=113,no=114,missing=114,gain=20580.1,cover=118
							113:[f22434<1.5] yes=181,no=182,missing=182,gain=9633.59,cover=104
								181:[f22523<-1e-005] yes=289,no=290,missing=289,gain=3624.46,cover=52
									289:[f23650<-1e-005] yes=437,no=438,missing=437,gain=4167.95,cover=45
										437:leaf=39.7243,cover=20
										438:leaf=64.4102,cover=25
									290:[f15328<-1e-005] yes=439,no=440,missing=439,gain=267.353,cover=7
										439:leaf=26.7458,cover=6
										440:leaf=4.09975,cover=1
								182:[f19733<-1e-005] yes=291,no=292,missing=291,gain=6705.4,cover=52
									291:[f19725<-1e-005] yes=441,no=442,missing=441,gain=732.439,cover=32
										441:leaf=22.9419,cover=25
										442:leaf=9.32788,cover=7
									292:[f23659<-1e-005] yes=443,no=444,missing=443,gain=1803.99,cover=20
										443:leaf=54.5128,cover=11
										444:leaf=28.4317,cover=9
							114:[f19583<-1e-005] yes=183,no=184,missing=183,gain=6891.77,cover=14
								183:[f22435<1.5] yes=293,no=294,missing=293,gain=5854.44,cover=11
									293:leaf=56.5142,cover=6
									294:leaf=122.445,cover=5
								184:leaf=27.593,cover=3
						70:[f22175<15.5] yes=115,no=116,missing=115,gain=2940.58,cover=91
							115:[f22176<1.5] yes=185,no=186,missing=186,gain=3207.89,cover=68
								185:[f23095<69.05] yes=295,no=296,missing=295,gain=678.386,cover=18
									295:[f537<-1e-005] yes=445,no=446,missing=445,gain=435.637,cover=16
										445:leaf=39.013,cover=15
										446:leaf=7.45491,cover=1
									296:leaf=10.5686,cover=2
								186:[f23603<156.5] yes=297,no=298,missing=298,gain=1093.97,cover=50
									297:[f23633<-1e-005] yes=447,no=448,missing=447,gain=413.001,cover=38
										447:leaf=17.2045,cover=30
										448:leaf=7.58798,cover=8
									298:[f19733<-1e-005] yes=449,no=450,missing=449,gain=62,cover=12
										449:leaf=15.6747,cover=4
										450:leaf=31.1387,cover=8
							116:[f23603<89.5] yes=187,no=188,missing=188,gain=157.655,cover=23
								187:[f23601<57.15] yes=299,no=300,missing=299,gain=53.2967,cover=12
									299:leaf=1.95497,cover=3
									300:leaf=7.63689,cover=9
								188:[f11710<-1e-005] yes=301,no=302,missing=301,gain=65.5266,cover=11
									301:leaf=13.5908,cover=10
									302:leaf=2.25246,cover=1
			12:leaf=618.327,cover=4
		6:[f22994<0.776] yes=13,no=14,missing=13,gain=86448,cover=1113
			13:[f22172<69] yes=25,no=26,missing=25,gain=65765.4,cover=1088
				25:[f23603<313] yes=41,no=42,missing=42,gain=54159.8,cover=389
					41:[f23128<2.159] yes=71,no=72,missing=72,gain=33385.6,cover=385
						71:[f23443<-1e-005] yes=117,no=118,missing=117,gain=16710.1,cover=13
							117:leaf=103.357,cover=9
							118:leaf=20.5467,cover=4
						72:[f23601<65.1] yes=119,no=120,missing=119,gain=29182,cover=372
							119:[f22617<32.5] yes=189,no=190,missing=189,gain=16783.7,cover=241
								189:[f23601<36.51] yes=303,no=304,missing=303,gain=9061.05,cover=233
									303:[f22888<0.1475] yes=451,no=452,missing=451,gain=1077.63,cover=63
										451:leaf=9.98253,cover=57
										452:leaf=23.9097,cover=6
									304:[f22172<44.5] yes=453,no=454,missing=454,gain=8093.95,cover=170
										453:leaf=32.806,cover=87
										454:leaf=18.5248,cover=83
								190:leaf=66.925,cover=8
							120:[f22888<2.088] yes=191,no=192,missing=191,gain=19924.3,cover=131
								191:[f22175<7] yes=305,no=306,missing=305,gain=12749.7,cover=129
									305:[f23605<82.55] yes=455,no=456,missing=455,gain=6001.6,cover=99
										455:leaf=24.8826,cover=15
										456:leaf=49.3999,cover=84
									306:[f19733<-1e-005] yes=457,no=458,missing=457,gain=709.673,cover=30
										457:leaf=8.17897,cover=5
										458:leaf=23.5396,cover=25
								192:leaf=126.542,cover=2
					42:leaf=138.411,cover=4
				26:[f13711<-1e-005] yes=43,no=44,missing=43,gain=22587.4,cover=699
					43:[f23631<-1e-005] yes=73,no=74,missing=73,gain=20433.2,cover=696
						73:[f23603<218.5] yes=121,no=122,missing=122,gain=8869.39,cover=600
							121:[f23601<107.95] yes=193,no=194,missing=193,gain=6805.36,cover=576
								193:[f23620<-1e-005] yes=307,no=308,missing=307,gain=4865.44,cover=524
									307:[f23601<53.975] yes=459,no=460,missing=459,gain=3901.51,cover=503
										459:leaf=8.84545,cover=196
										460:leaf=14.6551,cover=307
									308:[f23603<55] yes=461,no=462,missing=462,gain=1233.68,cover=21
										461:leaf=9.06902,cover=4
										462:leaf=31.5445,cover=17
								194:[f23603<146.5] yes=309,no=310,missing=310,gain=5998.71,cover=52
									309:[f22176<1.5] yes=463,no=464,missing=464,gain=831.508,cover=48
										463:leaf=25.3751,cover=26
										464:leaf=15.264,cover=22
									310:[f14218<-1e-005] yes=465,no=466,missing=465,gain=308.267,cover=4
										465:leaf=65.8923,cover=3
										466:leaf=16.5745,cover=1
							122:[f22173<8] yes=195,no=196,missing=195,gain=1213.66,cover=24
								195:[f426<-1e-005] yes=311,no=312,missing=311,gain=832.515,cover=18
									311:[f23099<73] yes=467,no=468,missing=468,gain=762.82,cover=17
										467:leaf=12.4558,cover=2
										468:leaf=42.3478,cover=15
									312:leaf=4.65616,cover=1
								196:leaf=16.8882,cover=6
						74:[f23603<114] yes=123,no=124,missing=124,gain=13576.4,cover=96
							123:[f23601<41.275] yes=197,no=198,missing=197,gain=2137.58,cover=72
								197:[f23605<57.15] yes=313,no=314,missing=313,gain=29.2504,cover=9
									313:leaf=3.44616,cover=3
									314:[f23603<35] yes=469,no=470,missing=470,gain=32.1698,cover=6
										469:leaf=3.36031,cover=2
										470:leaf=10.9035,cover=4
								198:[f5749<-1e-005] yes=315,no=316,missing=315,gain=1036.12,cover=63
									315:[f23099<11.765] yes=471,no=472,missing=472,gain=605.339,cover=61
										471:leaf=5.59245,cover=2
										472:leaf=26.7462,cover=59
									316:leaf=1.97578,cover=2
							124:[f22172<198] yes=199,no=200,missing=200,gain=3256.28,cover=24
								199:[f23604<2.5] yes=317,no=318,missing=318,gain=1786.16,cover=15
									317:leaf=19.3674,cover=2
									318:leaf=65.6867,cover=13
								200:leaf=30.4456,cover=9
					44:leaf=93.146,cover=3
			14:[f22172<197.5] yes=27,no=28,missing=28,gain=13146,cover=25
				27:[f23605<120.65] yes=45,no=46,missing=45,gain=9730.2,cover=20
					45:[f570<-1e-005] yes=75,no=76,missing=75,gain=1448.88,cover=12
						75:leaf=68.7595,cover=11
						76:leaf=12.5294,cover=1
					46:[f19709<-1e-005] yes=77,no=78,missing=77,gain=3416.72,cover=8
						77:leaf=84.1858,cover=6
						78:leaf=174.654,cover=2
				28:leaf=28.6229,cover=5
booster[1]
0:[f4926<-1e-005] yes=1,no=2,missing=1,gain=161205,cover=24116
	1:[f19575<-1e-005] yes=3,no=4,missing=3,gain=99610.7,cover=24115
		3:[f22431<-1e-005] yes=5,no=6,missing=5,gain=80084.7,cover=24112
			5:[f22525<21] yes=9,no=10,missing=9,gain=41525,cover=24106
				9:[f14118<-1e-005] yes=13,no=14,missing=13,gain=40037.9,cover=24066
					13:[f10202<-1e-005] yes=17,no=18,missing=17,gain=39710,cover=24062
						17:[f22631<1.1735] yes=25,no=26,missing=25,gain=36801.1,cover=24058
							25:[f462<-1e-005] yes=37,no=38,missing=37,gain=35459.7,cover=24035
								37:[f856<-1e-005] yes=51,no=52,missing=51,gain=27388.3,cover=24032
									51:[f4425<-1e-005] yes=67,no=68,missing=67,gain=26711.6,cover=24029
										67:leaf=0.198463,cover=24028
										68:leaf=115.771,cover=1
									52:leaf=82.9621,cover=3
								38:[f22175<4] yes=53,no=54,missing=53,gain=4289.02,cover=3
									53:leaf=114.521,cover=2
									54:leaf=16.986,cover=1
							26:[f22175<1.5] yes=39,no=40,missing=39,gain=17705.8,cover=23
								39:[f22625<-1e-005] yes=55,no=56,missing=55,gain=7553.74,cover=10
									55:leaf=89.9914,cover=6
									56:[f12255<-1e-005] yes=69,no=70,missing=69,gain=846.042,cover=4
										69:leaf=32.538,cover=3
										70:leaf=0.00900173,cover=1
								40:[f22618<82.5] yes=57,no=58,missing=58,gain=6998,cover=13
									57:[f23601<40.4] yes=71,no=72,missing=71,gain=585.6,cover=7
										71:leaf=-13.133,cover=5
										72:leaf=4.80018,cover=2
									58:[f2211<-1e-005] yes=73,no=74,missing=73,gain=589.145,cover=6
										73:leaf=45.892,cover=3
										74:leaf=16.6728,cover=3
						18:[f22175<3.5] yes=27,no=28,missing=27,gain=658.651,cover=4
							27:leaf=99.2006,cover=3
							28:leaf=25.1085,cover=1
					14:[f22175<1.5] yes=19,no=20,missing=19,gain=16973.6,cover=4
						19:leaf=163.692,cover=1
						20:[f22175<3] yes=29,no=30,missing=29,gain=391.851,cover=3
							29:leaf=5.89485,cover=1
							30:leaf=36.5916,cover=2
				10:[f23650<-1e-005] yes=15,no=16,missing=15,gain=11035.1,cover=40
					15:[f22175<2.5] yes=21,no=22,missing=21,gain=11972.2,cover=34
						21:[f23604<1.5] yes=31,no=32,missing=31,gain=10185.9,cover=20
							31:[f19709<-1e-005] yes=41,no=42,missing=41,gain=3495.12,cover=6
								41:leaf=35.7402,cover=3
								42:[f12908<-1e-005] yes=59,no=60,missing=59,gain=4.87846,cover=3
									59:leaf=-9.75819,cover=1
									60:leaf=-3.37852,cover=2
							32:[f22172<9] yes=43,no=44,missing=44,gain=13184.9,cover=14
								43:[f4063<-1e-005] yes=61,no=62,missing=61,gain=4663.67,cover=8
									61:leaf=101.658,cover=7
									62:leaf=13.2697,cover=1
								44:[f20048<-1e-005] yes=63,no=64,missing=63,gain=1942.57,cover=6
									63:leaf=37.0547,cover=4
									64:[f1655<-1e-005] yes=75,no=76,missing=75,gain=16.4989,cover=2
										75:leaf=-1.94206,cover=1
										76:leaf=2.12114,cover=1
						22:[f22177<2.00001] yes=33,no=34,missing=34,gain=3099.1,cover=14
							33:leaf=30.3927,cover=6
							34:[f22175<3.5] yes=45,no=46,missing=45,gain=572.166,cover=8
								45:leaf=10.535,cover=3
								46:[f22173<4.5] yes=65,no=66,missing=65,gain=444.922,cover=5
									65:leaf=-11.2889,cover=3
									66:leaf=5.19399,cover=2
					16:[f22525<24.175] yes=23,no=24,missing=24,gain=1859.32,cover=6
						23:[f19709<-1e-005] yes=35,no=36,missing=35,gain=300.082,cover=4
							35:[f2193<-1e-005] yes=47,no=48,missing=47,gain=14.2121,cover=2
								47:leaf=-3.78699,cover=1
								48:leaf=0.447371,cover=1
							36:[f8013<-1e-005] yes=49,no=50,missing=49,gain=35.1775,cover=2
								49:leaf=3.26553,cover=1
								50:leaf=15.7374,cover=1
						24:leaf=-25.5334,cover=2
			6:[f10529<-1e-005] yes=11,no=12,missing=11,gain=3626.44,cover=6
				11:leaf=117.827,cover=5
				12:leaf=22.2268,cover=1
		4:[f11250<-1e-005] yes=7,no=8,missing=7,gain=1681.54,cover=3
			7:leaf=180.374,cover=2
			8:leaf=45.8752,cover=1
	2:leaf=284.343,cover=1
booster[2]
0:[f4926<-1e-005] yes=1,no=2,missing=1,gain=40389.1,cover=24116
	1:[f22994<0.443] yes=3,no=4,missing=3,gain=26125.5,cover=24115
		3:[f11682<-1e-005] yes=5,no=6,missing=5,gain=22863.9,cover=24000
			5:[f23096<69.875] yes=9,no=10,missing=10,gain=17865.8,cover=23999
				9:[f22175<3.5] yes=13,no=14,missing=13,gain=15845.2,cover=126
					13:[f22172<6] yes=21,no=22,missing=21,gain=13031.9,cover=60
						21:[f22616<49.95] yes=37,no=38,missing=37,gain=4380.89,cover=40
							37:[f19684<-1e-005] yes=57,no=58,missing=57,gain=4167.33,cover=35
								57:[f4827<-1e-005] yes=87,no=88,missing=87,gain=2192.67,cover=33
									87:[f19397<-1e-005] yes=123,no=124,missing=123,gain=2319.54,cover=32
										123:leaf=43.6746,cover=30
										124:leaf=5.4666,cover=2
									88:leaf=-3.1072,cover=1
								58:leaf=-4.69047,cover=2
							38:[f16568<-1e-005] yes=59,no=60,missing=59,gain=166.915,cover=5
								59:[f22175<2] yes=89,no=90,missing=89,gain=249.626,cover=3
									89:leaf=-6.03097,cover=2
									90:leaf=8.39445,cover=1
								60:[f22175<1.5] yes=91,no=92,missing=91,gain=339.311,cover=2
									91:leaf=17.7882,cover=1
									92:leaf=-2.61034,cover=1
						22:[f19709<-1e-005] yes=39,no=40,missing=39,gain=6807.83,cover=20
							39:[f3068<-1e-005] yes=61,no=62,missing=61,gain=2304.31,cover=17
								61:[f23095<73.85] yes=93,no=94,missing=94,gain=444.913,cover=15
									93:[f19618<-1e-005] yes=125,no=126,missing=125,gain=178.129,cover=7
										125:leaf=-9.02896,cover=5
										126:leaf=1.29688,cover=2
									94:[f11824<-1e-005] yes=127,no=128,missing=127,gain=136.364,cover=8
										127:leaf=5.51575,cover=7
										128:leaf=-4.18505,cover=1
								62:leaf=-31.3342,cover=2
							40:leaf=39.5975,cover=3
					14:[f3068<-1e-005] yes=23,no=24,missing=23,gain=2061.39,cover=66
						23:[f18650<-1e-005] yes=41,no=42,missing=41,gain=1801.91,cover=65
							41:[f23645<-1e-005] yes=63,no=64,missing=63,gain=997.804,cover=60
								63:[f22175<42.5] yes=95,no=96,missing=95,gain=343.124,cover=39
									95:[f350<-1e-005] yes=129,no=130,missing=129,gain=294.083,cover=32
										129:leaf=-0.370707,cover=31
										130:leaf=-12.8968,cover=1
									96:leaf=-8.51317,cover=7
								64:[f6193<-1e-005] yes=97,no=98,missing=97,gain=519.405,cover=21
									97:[f1798<-1e-005] yes=131,no=132,missing=131,gain=267.144,cover=20
										131:leaf=8.18451,cover=18
										132:leaf=-2.82321,cover=2
									98:leaf=-10.3678,cover=1
							42:[f22175<8] yes=65,no=66,missing=65,gain=115.464,cover=5
								65:leaf=20.7097,cover=4
								66:leaf=3.78093,cover=1
						24:leaf=-30.6012,cover=1
				10:[f22608<1.235] yes=15,no=16,missing=15,gain=15135.8,cover=23873
					15:[f3747<-1e-005] yes=25,no=26,missing=25,gain=14827.7,cover=23850
						25:[f22888<0.0295] yes=43,no=44,missing=43,gain=13071.6,cover=23849
							43:[f4058<-1e-005] yes=67,no=68,missing=67,gain=12605,cover=23395
								67:[f19743<-1e-005] yes=99,no=100,missing=99,gain=12047.7,cover=23390
									99:[f6016<-1e-005] yes=133,no=134,missing=133,gain=11640.9,cover=23381
										133:leaf=-0.225102,cover=23380
										134:leaf=76.07,cover=1
									100:[f22175<3.5] yes=135,no=136,missing=135,gain=15307.2,cover=9
										135:leaf=-82.8652,cover=3
										136:leaf=-2.55686,cover=6
								68:[f22175<26] yes=101,no=102,missing=101,gain=767.662,cover=5
									101:leaf=61.1333,cover=2
									102:leaf=22.5611,cover=3
							44:[f12790<-1e-005] yes=69,no=70,missing=69,gain=8381.69,cover=454
								69:[f22172<7.5] yes=103,no=104,missing=104,gain=10907.8,cover=452
									103:[f22175<1.5] yes=137,no=138,missing=137,gain=9715.39,cover=77
										137:leaf=27.76,cover=37
										138:leaf=5.26739,cover=40
									104:[f23603<10] yes=139,no=140,missing=140,gain=5969.34,cover=375
										139:leaf=-41.1974,cover=2
										140:leaf=3.62837,cover=373
								70:leaf=-47.5888,cover=2
						26:leaf=85.989,cover=1
					16:[f22172<8] yes=27,no=28,missing=28,gain=3811.01,cover=23
						27:[f15403<-1e-005] yes=45,no=46,missing=45,gain=1085.75,cover=9
							45:leaf=43.8141,cover=8
							46:leaf=4.25348,cover=1
						28:[f22177<4.00001] yes=47,no=48,missing=48,gain=261.81,cover=14
							47:[f22608<1.627] yes=71,no=72,missing=72,gain=3.38385,cover=10
								71:leaf=20.7259,cover=3
								72:leaf=11.3846,cover=7
							48:[f13317<-1e-005] yes=73,no=74,missing=73,gain=12.7496,cover=4
								73:leaf=6.20186,cover=2
								74:[f22175<17.5] yes=105,no=106,missing=105,gain=1.55406,cover=2
									105:leaf=2.17593,cover=1
									106:leaf=0.285524,cover=1
			6:leaf=106.902,cover=1
		4:[f23339<-1e-005] yes=7,no=8,missing=7,gain=19720.5,cover=115
			7:[f22175<1.5] yes=11,no=12,missing=11,gain=26877.7,cover=112
				11:[f22172<7.5] yes=17,no=18,missing=18,gain=43311.5,cover=53
					17:[f23022<-1e-005] yes=29,no=30,missing=29,gain=15470.8,cover=17
						29:[f8259<-1e-005] yes=49,no=50,missing=49,gain=16743.3,cover=15
							49:[f23464<-1e-005] yes=75,no=76,missing=75,gain=16983.4,cover=14
								75:[f22888<0.32] yes=107,no=108,missing=108,gain=16848.5,cover=12
									107:leaf=13.7798,cover=2
									108:[f10779<-1e-005] yes=141,no=142,missing=141,gain=4986.42,cover=10
										141:leaf=128.728,cover=9
										142:leaf=23.4521,cover=1
								76:[f458<-1e-005] yes=109,no=110,missing=109,gain=752.279,cover=2
									109:leaf=17.2188,cover=1
									110:leaf=-10.4832,cover=1
							50:leaf=-22.513,cover=1
						30:leaf=-6.31233,cover=2
					18:[f23631<-1e-005] yes=31,no=32,missing=31,gain=3674.32,cover=36
						31:[f21937<-1e-005] yes=51,no=52,missing=51,gain=866.748,cover=15
							51:[f23605<114.3] yes=77,no=78,missing=77,gain=471.485,cover=13
								77:[f19535<-1e-005] yes=111,no=112,missing=111,gain=61.2499,cover=9
									111:[f9708<-1e-005] yes=143,no=144,missing=143,gain=27.7826,cover=6
										143:leaf=-8.8069,cover=5
										144:leaf=-1.37048,cover=1
									112:[f21236<-1e-005] yes=145,no=146,missing=145,gain=0.792717,cover=3
										145:leaf=-2.07824,cover=2
										146:leaf=-0.420818,cover=1
								78:[f19733<-1e-005] yes=113,no=114,missing=113,gain=54.6815,cover=4
									113:[f7269<-1e-005] yes=147,no=148,missing=147,gain=0.437224,cover=2
										147:leaf=1.35723,cover=1
										148:leaf=0.228086,cover=1
									114:leaf=8.43836,cover=2
							52:leaf=16.298,cover=2
						32:[f22888<0.429] yes=53,no=54,missing=54,gain=3067.62,cover=21
							53:[f22172<31] yes=79,no=80,missing=80,gain=537.458,cover=4
								79:leaf=-12.0765,cover=2
								80:leaf=6.98867,cover=2
							54:[f23603<48.5] yes=81,no=82,missing=82,gain=3381.9,cover=17
								81:[f23662<2.00001] yes=115,no=116,missing=116,gain=234.682,cover=5
									115:leaf=10.2247,cover=2
									116:[f14593<-1e-005] yes=149,no=150,missing=149,gain=13.6344,cover=3
										149:leaf=-2.90941,cover=2
										150:leaf=0.767296,cover=1
								82:[f20048<-1e-005] yes=117,no=118,missing=117,gain=2944.01,cover=12
									117:[f23099<22.095] yes=151,no=152,missing=152,gain=1725.46,cover=10
										151:leaf=14.7676,cover=3
										152:leaf=50.0893,cover=7
									118:[f1655<-1e-005] yes=153,no=154,missing=153,gain=4.12473,cover=2
										153:leaf=-0.971031,cover=1
										154:leaf=1.06057,cover=1
				12:[f23605<146.05] yes=19,no=20,missing=19,gain=19482.1,cover=59
					19:[f9104<-1e-005] yes=33,no=34,missing=33,gain=7662.64,cover=55
						33:[f23054<1.1] yes=55,no=56,missing=56,gain=4852.23,cover=52
							55:[f22175<6] yes=83,no=84,missing=83,gain=385.734,cover=5
								83:leaf=-30.1323,cover=4
								84:leaf=-3.89395,cover=1
							56:[f19732<-1e-005] yes=85,no=86,missing=85,gain=3186.59,cover=47
								85:[f22175<2.5] yes=119,no=120,missing=119,gain=1408.05,cover=39
									119:[f18465<-1e-005] yes=155,no=156,missing=155,gain=5039.28,cover=7
										155:leaf=12.4958,cover=5
										156:leaf=-37.8023,cover=2
									120:[f22175<4.5] yes=157,no=158,missing=157,gain=4593.04,cover=32
										157:leaf=28.1735,cover=9
										158:leaf=2.38231,cover=23
								86:[f22175<2.5] yes=121,no=122,missing=121,gain=1436.73,cover=8
									121:leaf=13.2539,cover=1
									122:[f792<-1e-005] yes=159,no=160,missing=159,gain=823.529,cover=7
										159:leaf=-8.40738,cover=5
										160:leaf=-32.0992,cover=2
						34:leaf=-45.0018,cover=3
					20:[f11621<-1e-005] yes=35,no=36,missing=35,gain=4787.88,cover=4
						35:leaf=77.8064,cover=3
						36:leaf=0.221929,cover=1
			8:leaf=-54.4939,cover=3
	2:leaf=142.172,cover=1
booster[3]
0:[f4241<-1e-005] yes=1,no=2,missing=1,gain=10668.1,cover=24116
	1:[f43<-1e-005] yes=3,no=4,missing=3,gain=10513.1,cover=24115
		3:[f507<-1e-005] yes=5,no=6,missing=5,gain=10247.6,cover=24114
			5:[f4926<-1e-005] yes=7,no=8,missing=7,gain=10105,cover=24113
				7:[f5774<-1e-005] yes=9,no=10,missing=9,gain=9866.46,cover=24112
					9:[f1490<-1e-005] yes=11,no=12,missing=11,gain=9847.37,cover=24108
						11:[f928<-1e-005] yes=15,no=16,missing=15,gain=9322.22,cover=24103
							15:[f23301<-1e-005] yes=23,no=24,missing=23,gain=9119.26,cover=24102
								23:[f14434<-1e-005] yes=27,no=28,missing=27,gain=8482.28,cover=24064
									27:[f18100<-1e-005] yes=31,no=32,missing=31,gain=7913.44,cover=24059
										31:leaf=-0.0303272,cover=24050
										32:leaf=28.1064,cover=9
									28:[f22175<4] yes=33,no=34,missing=33,gain=3708.23,cover=5
										33:leaf=62.826,cover=2
										34:leaf=9.25862,cover=3
								24:[f22175<4] yes=29,no=30,missing=29,gain=9553.91,cover=38
									29:[f23344<-1e-005] yes=35,no=36,missing=35,gain=9824.43,cover=12
										35:leaf=16.9442,cover=9
										36:leaf=79.3489,cover=3
									30:[f16903<-1e-005] yes=37,no=38,missing=37,gain=460.491,cover=26
										37:leaf=5.34492,cover=24
										38:leaf=-7.99126,cover=2
							16:leaf=68.2907,cover=1
						12:[f22175<2.5] yes=17,no=18,missing=17,gain=6806.72,cover=5
							17:leaf=-74.2615,cover=2
							18:[f22175<3.5] yes=25,no=26,missing=25,gain=3.57918,cover=3
								25:leaf=-1.35699,cover=1
								26:leaf=-5.82569,cover=2
					10:[f22175<2.5] yes=13,no=14,missing=13,gain=3516.55,cover=4
						13:[f22175<1.5] yes=19,no=20,missing=19,gain=4355.75,cover=2
							19:leaf=-6.00423,cover=1
							20:leaf=-93.5056,cover=1
						14:[f22175<3.5] yes=21,no=22,missing=21,gain=133.727,cover=2
							21:leaf=0.907166,cover=1
							22:leaf=-12.4356,cover=1
				8:leaf=71.0858,cover=1
			6:leaf=71.5914,cover=1
		4:leaf=72.5186,cover=1
	2:leaf=73.0572,cover=1
booster[4]
0:[f19709<-1e-005] yes=1,no=2,missing=1,gain=7682.92,cover=24116
	1:[f23098<26.75] yes=3,no=4,missing=3,gain=7985.28,cover=23541
		3:[f21423<-1e-005] yes=7,no=8,missing=7,gain=7502.45,cover=23526
			7:[f4425<-1e-005] yes=15,no=16,missing=15,gain=6747.23,cover=23521
				15:[f22434<6.5] yes=27,no=28,missing=28,gain=6461.66,cover=23520
					27:[f2696<-1e-005] yes=47,no=48,missing=47,gain=6192.13,cover=22510
						47:[f23181<47.625] yes=69,no=70,missing=69,gain=6146.3,cover=22507
							69:[f22904<-1e-005] yes=95,no=96,missing=95,gain=5938.42,cover=22500
								95:[f23097<92.86] yes=127,no=128,missing=127,gain=5778.94,cover=22497
									127:[f23603<234.5] yes=173,no=174,missing=174,gain=5704.4,cover=22489
										173:leaf=-0.0764694,cover=21916
										174:leaf=3.117,cover=573
									128:[f23093<-1e-005] yes=175,no=176,missing=175,gain=5703.12,cover=8
										175:leaf=47.8778,cover=4
										176:leaf=-2.24797,cover=4
								96:[f13717<-1e-005] yes=129,no=130,missing=129,gain=223.852,cover=3
									129:leaf=44.5637,cover=2
									130:leaf=10.2528,cover=1
							70:[f22175<2] yes=97,no=98,missing=97,gain=6164.94,cover=7
								97:leaf=55.5049,cover=3
								98:[f22175<4] yes=131,no=132,missing=131,gain=23.9028,cover=4
									131:leaf=2.81268,cover=1
									132:[f22175<6] yes=177,no=178,missing=177,gain=60.0689,cover=3
										177:leaf=-5.43891,cover=1
										178:leaf=1.73077,cover=2
						48:[f22175<4] yes=71,no=72,missing=71,gain=1662.68,cover=3
							71:leaf=61.017,cover=1
							72:leaf=11.8292,cover=2
					28:[f23605<200.025] yes=49,no=50,missing=50,gain=7620.19,cover=1010
						49:[f9425<-1e-005] yes=73,no=74,missing=73,gain=6720.84,cover=934
							73:[f6591<-1e-005] yes=99,no=100,missing=99,gain=5621.37,cover=933
								99:[f3747<-1e-005] yes=133,no=134,missing=133,gain=4062.42,cover=930
									133:[f23542<-1e-005] yes=179,no=180,missing=179,gain=3911.88,cover=929
										179:leaf=-2.42442,cover=911
										180:leaf=12.0815,cover=18
									134:leaf=43.0097,cover=1
								100:[f22175<6.5] yes=135,no=136,missing=135,gain=411.222,cover=3
									135:leaf=42.2045,cover=2
									136:leaf=7.78151,cover=1
							74:leaf=56.1672,cover=1
						50:[f22172<5.5] yes=75,no=76,missing=76,gain=974.769,cover=76
							75:[f23633<-1e-005] yes=101,no=102,missing=101,gain=1089.76,cover=15
								101:[f10408<-1e-005] yes=137,no=138,missing=137,gain=257.024,cover=11
									137:[f1838<-1e-005] yes=181,no=182,missing=181,gain=172.696,cover=8
										181:leaf=-16.6199,cover=7
										182:leaf=-1.27537,cover=1
									138:leaf=-3.08148,cover=3
								102:leaf=-32.5495,cover=4
							76:[f23601<28.575] yes=103,no=104,missing=103,gain=459.17,cover=61
								103:[f13976<-1e-005] yes=139,no=140,missing=139,gain=16.3234,cover=5
									139:[f16721<-1e-005] yes=183,no=184,missing=183,gain=0.482478,cover=4
										183:leaf=-1.77279,cover=3
										184:leaf=-0.390386,cover=1
									140:leaf=1.8486,cover=1
								104:[f5640<-1e-005] yes=141,no=142,missing=141,gain=332.129,cover=56
									141:[f4318<-1e-005] yes=185,no=186,missing=185,gain=191.955,cover=55
										185:leaf=-10.5298,cover=54
										186:leaf=-23.2981,cover=1
									142:leaf=4.0495,cover=1
				16:leaf=58.0131,cover=1
			8:[f6413<-1e-005] yes=17,no=18,missing=17,gain=2267.5,cover=5
				17:[f22175<3] yes=29,no=30,missing=29,gain=597.76,cover=4
					29:leaf=55.9342,cover=2
					30:leaf=17.5016,cover=2
				18:leaf=-4.25862,cover=1
		4:[f22172<4.5] yes=9,no=10,missing=10,gain=1149.58,cover=15
			9:leaf=-34.3141,cover=5
			10:[f22175<2.5] yes=19,no=20,missing=19,gain=353.213,cover=10
				19:[f22175<1.5] yes=31,no=32,missing=31,gain=464.768,cover=3
					31:[f16045<-1e-005] yes=51,no=52,missing=51,gain=16.718,cover=2
						51:leaf=-12.9794,cover=1
						52:leaf=-2.92682,cover=1
					32:leaf=9.26204,cover=1
				20:[f22175<6] yes=33,no=34,missing=33,gain=756.554,cover=7
					33:leaf=-25.0309,cover=4
					34:[f16045<-1e-005] yes=53,no=54,missing=53,gain=22.8955,cover=3
						53:[f22175<8] yes=77,no=78,missing=77,gain=16.2822,cover=2
							77:leaf=1.48908,cover=1
							78:leaf=-2.59638,cover=1
						54:leaf=-5.97689,cover=1
	2:[f23603<109.5] yes=5,no=6,missing=6,gain=9164.54,cover=575
		5:[f1822<-1e-005] yes=11,no=12,missing=11,gain=5369.74,cover=388
			11:[f23604<14] yes=21,no=22,missing=22,gain=4835.18,cover=387
				21:[f7930<-1e-005] yes=35,no=36,missing=35,gain=3927.65,cover=342
					35:[f18890<-1e-005] yes=55,no=56,missing=55,gain=4019.68,cover=338
						55:[f23371<-1e-005] yes=79,no=80,missing=79,gain=3451.15,cover=335
							79:[f22173<200] yes=105,no=106,missing=106,gain=4049.87,cover=314
								105:[f14934<-1e-005] yes=143,no=144,missing=143,gain=2988.75,cover=230
									143:[f22888<1.2975] yes=187,no=188,missing=187,gain=2965.91,cover=229
										187:leaf=-1.07271,cover=226
										188:leaf=26.3979,cover=3
									144:leaf=38.2257,cover=1
								106:[f22175<1.5] yes=145,no=146,missing=145,gain=13536.7,cover=84
									145:[f22509<-1e-005] yes=189,no=190,missing=189,gain=3812,cover=10
										189:leaf=49.3291,cover=8
										190:leaf=0.705933,cover=2
									146:[f22524<-1e-005] yes=191,no=192,missing=191,gain=2544.68,cover=74
										191:leaf=5.74041,cover=60
										192:leaf=-8.82162,cover=14
							80:[f23605<114.3] yes=107,no=108,missing=108,gain=980.034,cover=21
								107:[f22175<2] yes=147,no=148,missing=147,gain=1031.69,cover=15
									147:[f22172<5.5] yes=193,no=194,missing=194,gain=2043.08,cover=9
										193:leaf=-34.1408,cover=2
										194:leaf=-2.53196,cover=7
									148:[f22175<7.5] yes=195,no=196,missing=195,gain=218.43,cover=6
										195:leaf=10.2813,cover=2
										196:leaf=-0.822758,cover=4
								108:leaf=-21.004,cover=6
						56:leaf=32.9668,cover=3
					36:[f22175<1.5] yes=57,no=58,missing=57,gain=9869.12,cover=4
						57:leaf=84.1989,cover=1
						58:[f22175<3] yes=81,no=82,missing=81,gain=190.837,cover=3
							81:leaf=3.9657,cover=1
							82:leaf=-9.28453,cover=2
				22:[f23633<-1e-005] yes=37,no=38,missing=37,gain=2372.64,cover=45
					37:[f22888<0.696] yes=59,no=60,missing=60,gain=1272.29,cover=41
						59:[f23603<52] yes=83,no=84,missing=84,gain=1006.65,cover=6
							83:[f5100<-1e-005] yes=109,no=110,missing=109,gain=5.74966,cover=4
								109:leaf=-28.9154,cover=3
								110:leaf=-7.99585,cover=1
							84:[f13502<-1e-005] yes=111,no=112,missing=111,gain=34.3248,cover=2
								111:leaf=3.03755,cover=1
								112:leaf=-2.8225,cover=1
						60:[f23625<-1e-005] yes=85,no=86,missing=85,gain=849.383,cover=35
							85:[f23425<-1e-005] yes=113,no=114,missing=113,gain=520.418,cover=28
								113:[f22172<55.5] yes=149,no=150,missing=150,gain=514.274,cover=26
									149:[f23601<133.35] yes=197,no=198,missing=197,gain=559.962,cover=14
										197:leaf=6.88146,cover=12
										198:leaf=-8.50418,cover=2
									150:[f22434<2.5] yes=199,no=200,missing=200,gain=92.9338,cover=12
										199:leaf=-6.45287,cover=7
										200:leaf=-0.779645,cover=5
								114:leaf=-13.6171,cover=2
							86:[f22175<1.5] yes=115,no=116,missing=115,gain=586.395,cover=7
								115:[f1490<-1e-005] yes=151,no=152,missing=151,gain=384.581,cover=3
									151:leaf=-7.19569,cover=2
									152:leaf=-32.2935,cover=1
								116:[f22175<2.5] yes=153,no=154,missing=153,gain=2.86295,cover=4
									153:leaf=-4.83728,cover=1
									154:leaf=-1.79567,cover=3
					38:[f19862<-1e-005] yes=61,no=62,missing=61,gain=316.37,cover=4
						61:leaf=-34.2141,cover=3
						62:leaf=-6.06742,cover=1
			12:leaf=52.5283,cover=1
		6:[f23601<107.95] yes=13,no=14,missing=13,gain=8485.53,cover=187
			13:[f23398<-1e-005] yes=23,no=24,missing=23,gain=7481.24,cover=174
				23:[f23605<82.55] yes=39,no=40,missing=40,gain=4762.03,cover=171
					39:[f22172<31] yes=63,no=64,missing=64,gain=5878.46,cover=66
						63:[f23605<44.45] yes=87,no=88,missing=88,gain=2047.37,cover=31
							87:[f23602<1.445] yes=117,no=118,missing=117,gain=740.66,cover=15
								117:[f13728<-1e-005] yes=155,no=156,missing=155,gain=49.736,cover=5
									155:leaf=24.1107,cover=4
									156:leaf=6.00759,cover=1
								118:[f22174<-1e-005] yes=157,no=158,missing=157,gain=667.345,cover=10
									157:[f21871<-1e-005] yes=201,no=202,missing=201,gain=57.8092,cover=5
										201:leaf=-3.72277,cover=3
										202:leaf=2.16783,cover=2
									158:[f22175<2] yes=203,no=204,missing=203,gain=215.005,cover=5
										203:leaf=20.533,cover=2
										204:leaf=5.5892,cover=3
							88:[f22175<2.5] yes=119,no=120,missing=119,gain=1466.88,cover=16
								119:[f22172<5.5] yes=159,no=160,missing=160,gain=2371.86,cover=12
									159:[f22175<1.5] yes=205,no=206,missing=205,gain=2106.34,cover=6
										205:leaf=66.2424,cover=3
										206:leaf=20.1937,cover=3
									160:[f5807<-1e-005] yes=207,no=208,missing=207,gain=44.4784,cover=6
										207:leaf=18.853,cover=5
										208:leaf=4.46594,cover=1
								120:[f22175<4.5] yes=161,no=162,missing=161,gain=212.748,cover=4
									161:leaf=13.7576,cover=3
									162:leaf=-1.34386,cover=1
						64:[f10095<-1e-005] yes=89,no=90,missing=89,gain=1330.69,cover=35
							89:[f22167<-1e-005] yes=121,no=122,missing=121,gain=461.511,cover=34
								121:[f2143<-1e-005] yes=163,no=164,missing=163,gain=90.6137,cover=30
									163:[f22172<35] yes=209,no=210,missing=210,gain=42.5143,cover=29
										209:leaf=-3.24145,cover=2
										210:leaf=0.725186,cover=27
									164:leaf=7.32907,cover=1
								122:[f14671<-1e-005] yes=165,no=166,missing=165,gain=116.79,cover=4
									165:leaf=13.6545,cover=3
									166:leaf=0.756454,cover=1
							90:leaf=28.9907,cover=1
					40:[f23115<61.94] yes=65,no=66,missing=65,gain=3865.32,cover=105
						65:[f5774<-1e-005] yes=91,no=92,missing=91,gain=2808.64,cover=102
							91:[f43<-1e-005] yes=123,no=124,missing=123,gain=2381.62,cover=98
								123:[f4926<-1e-005] yes=167,no=168,missing=167,gain=2383.9,cover=97
									167:[f22042<-1e-005] yes=211,no=212,missing=211,gain=2043.59,cover=96
										211:leaf=1.58604,cover=93
										212:leaf=-21.4953,cover=3
									168:leaf=35.5429,cover=1
								124:leaf=36.2593,cover=1
							92:[f22175<2.5] yes=125,no=126,missing=125,gain=879.137,cover=4
								125:[f22175<1.5] yes=169,no=170,missing=169,gain=1088.94,cover=2
									169:leaf=-3.00211,cover=1
									170:leaf=-46.7528,cover=1
								126:[f22175<3.5] yes=171,no=172,missing=171,gain=33.4319,cover=2
									171:leaf=0.453583,cover=1
									172:leaf=-6.2178,cover=1
						66:[f15283<-1e-005] yes=93,no=94,missing=93,gain=616.697,cover=3
							93:leaf=40.0978,cover=2
							94:leaf=5.11538,cover=1
				24:[f16514<-1e-005] yes=41,no=42,missing=41,gain=1400.65,cover=3
					41:leaf=61.5725,cover=2
					42:leaf=8.172,cover=1
			14:[f22172<71.5] yes=25,no=26,missing=26,gain=7931.09,cover=13
				25:[f17659<-1e-005] yes=43,no=44,missing=43,gain=2044.41,cover=5
					43:leaf=69.4064,cover=4
					44:leaf=8.97961,cover=1
				26:[f22173<2.5] yes=45,no=46,missing=46,gain=1337.12,cover=8
					45:leaf=21.8839,cover=4
					46:[f8013<-1e-005] yes=67,no=68,missing=67,gain=283.99,cover=4
						67:leaf=-6.69733,cover=3
						68:leaf=7.99643,cover=1
booster[5]
0:[f1165<-1e-005] yes=1,no=2,missing=1,gain=5391.87,cover=24116
	1:[f3826<-1e-005] yes=3,no=4,missing=3,gain=5127.65,cover=24115
		3:[f17889<-1e-005] yes=5,no=6,missing=5,gain=5121.22,cover=24114
			5:[f2495<-1e-005] yes=7,no=8,missing=7,gain=4759.55,cover=24107
				7:[f23140<-1e-005] yes=11,no=12,missing=11,gain=4457.54,cover=24106
					11:[f23603<64.5] yes=13,no=14,missing=14,gain=4277.29,cover=24101
						13:[f21488<-1e-005] yes=17,no=18,missing=17,gain=3193.29,cover=8649
							17:[f19733<-1e-005] yes=23,no=24,missing=23,gain=3137.23,cover=8642
								23:[f22596<15.04] yes=31,no=32,missing=31,gain=3330.73,cover=2879
									31:[f17647<-1e-005] yes=43,no=44,missing=43,gain=2459.91,cover=2858
										43:leaf=-1.45684,cover=2857
										44:leaf=-36.5555,cover=1
									32:[f22595<61.6] yes=45,no=46,missing=46,gain=480.381,cover=21
										45:leaf=14.1102,cover=14
										46:leaf=3.44489,cover=7
								24:[f23054<0.988] yes=33,no=34,missing=34,gain=3941.59,cover=5763
									33:[f23601<50.8] yes=47,no=48,missing=47,gain=2000.56,cover=22
										47:leaf=17.2834,cover=18
										48:leaf=-6.08401,cover=4
									34:[f23095<51.585] yes=49,no=50,missing=50,gain=3003.14,cover=5741
										49:leaf=17.1524,cover=9
										50:leaf=-0.192339,cover=5732
							18:[f4043<-1e-005] yes=25,no=26,missing=25,gain=148.068,cover=7
								25:leaf=-32.4995,cover=1
								26:leaf=-14.1716,cover=6
						14:[f23605<185.25] yes=19,no=20,missing=19,gain=4775.8,cover=15452
							19:[f2194<-1e-005] yes=27,no=28,missing=27,gain=4093.29,cover=15408
								27:[f19727<-1e-005] yes=35,no=36,missing=35,gain=3992.41,cover=15402
									35:[f23108<0.157] yes=51,no=52,missing=52,gain=4230.91,cover=15095
										51:leaf=6.9342,cover=92
										52:leaf=0.168398,cover=15003
									36:[f22175<4.5] yes=53,no=54,missing=53,gain=6043.57,cover=307
										53:leaf=11.6558,cover=74
										54:leaf=1.32775,cover=233
								28:[f22175<4] yes=37,no=38,missing=37,gain=936.377,cover=6
									37:leaf=38.8538,cover=2
									38:leaf=10.9461,cover=4
							20:[f23601<14.29] yes=29,no=30,missing=29,gain=2653.96,cover=44
								29:[f22175<35] yes=39,no=40,missing=39,gain=12.5271,cover=13
									39:[f787<-1e-005] yes=55,no=56,missing=55,gain=2.21052,cover=10
										55:leaf=-1.981,cover=9
										56:leaf=-0.197222,cover=1
									40:leaf=0.363542,cover=3
								30:[f23625<-1e-005] yes=41,no=42,missing=41,gain=1728.23,cover=31
									41:[f22175<6.5] yes=57,no=58,missing=57,gain=1606.95,cover=15
										57:leaf=29.849,cover=10
										58:leaf=6.56853,cover=5
									42:[f19733<-1e-005] yes=59,no=60,missing=59,gain=394.314,cover=16
										59:leaf=13.394,cover=6
										60:leaf=3.15736,cover=10
					12:[f22175<3] yes=15,no=16,missing=15,gain=3204.63,cover=5
						15:leaf=50.4251,cover=2
						16:[f6193<-1e-005] yes=21,no=22,missing=21,gain=184.817,cover=3
							21:leaf=7.53267,cover=2
							22:leaf=-5.1305,cover=1
				8:leaf=48.8005,cover=1
			6:[f22175<7.5] yes=9,no=10,missing=9,gain=54.5912,cover=7
				9:leaf=28.4022,cover=5
				10:leaf=10.729,cover=2
		4:leaf=50.6643,cover=1
	2:leaf=51.9567,cover=1
booster[6]
0:[f13973<-1e-005] yes=1,no=2,missing=1,gain=3494.7,cover=24116
	1:[f19099<-1e-005] yes=3,no=4,missing=3,gain=3480.26,cover=24115
		3:[f13553<-1e-005] yes=5,no=6,missing=5,gain=3465.45,cover=24113
			5:[f4072<-1e-005] yes=7,no=8,missing=7,gain=3128.25,cover=24112
				7:[f13630<-1e-005] yes=9,no=10,missing=9,gain=3037.01,cover=24111
					9:[f228<-1e-005] yes=11,no=12,missing=11,gain=3016.91,cover=24110
						11:[f22577<33.8] yes=13,no=14,missing=13,gain=2964.85,cover=24108
							13:[f23191<-1e-005] yes=15,no=16,missing=15,gain=2956.29,cover=24092
								15:[f6016<-1e-005] yes=19,no=20,missing=19,gain=2917.27,cover=24068
									19:[f23384<-1e-005] yes=23,no=24,missing=23,gain=2870.73,cover=24067
										23:leaf=-0.0251398,cover=24016
										24:leaf=7.413,cover=51
									20:leaf=38.1846,cover=1
								16:[f23605<22.225] yes=21,no=22,missing=21,gain=1013.93,cover=24
									21:[f133<-1e-005] yes=25,no=26,missing=25,gain=224.501,cover=12
										25:leaf=0.0200175,cover=7
										26:leaf=8.35885,cover=5
									22:[f22175<2] yes=27,no=28,missing=27,gain=2173.77,cover=12
										27:leaf=41.1215,cover=2
										28:leaf=8.92501,cover=10
							14:[f6661<-1e-005] yes=17,no=18,missing=17,gain=162.586,cover=16
								17:leaf=16.2975,cover=9
								18:leaf=7.71265,cover=7
						12:leaf=-31.6991,cover=2
					10:leaf=-38.9589,cover=1
				8:leaf=39.5582,cover=1
			6:leaf=41.6386,cover=1
		4:leaf=-34.0479,cover=2
	2:leaf=41.813,cover=1
booster[7]
0:[f12927<-1e-005] yes=1,no=2,missing=1,gain=2823.24,cover=24116
	1:[f17172<-1e-005] yes=3,no=4,missing=3,gain=2799.66,cover=24115
		3:[f4241<-1e-005] yes=5,no=6,missing=5,gain=2737.45,cover=24112
			5:[f15753<-1e-005] yes=9,no=10,missing=9,gain=2671.99,cover=24111
				9:[f629<-1e-005] yes=11,no=12,missing=11,gain=2657.54,cover=24107
					11:[f9231<-1e-005] yes=15,no=16,missing=15,gain=2509.13,cover=24106
						15:[f17083<-1e-005] yes=17,no=18,missing=17,gain=2486.15,cover=24105
							17:[f13626<-1e-005] yes=19,no=20,missing=19,gain=2475.32,cover=24101
								19:[f10781<-1e-005] yes=23,no=24,missing=23,gain=2472.67,cover=24099
									23:[f22526<67.46] yes=27,no=28,missing=27,gain=2427.19,cover=24098
										27:leaf=-0.0313849,cover=24093
										28:leaf=20.0841,cover=5
									24:leaf=35.1367,cover=1
								20:leaf=28.703,cover=2
							18:[f22175<5] yes=21,no=22,missing=21,gain=1274.38,cover=4
								21:leaf=35.341,cover=2
								22:[f22175<8] yes=25,no=26,missing=25,gain=0.330504,cover=2
									25:leaf=2.17396,cover=1
									26:leaf=0.517247,cover=1
						16:leaf=35.406,cover=1
					12:leaf=36.4415,cover=1
				10:[f22175<5] yes=13,no=14,missing=13,gain=649.161,cover=4
					13:leaf=32.7629,cover=2
					14:leaf=5.75396,cover=2
			6:leaf=36.9933,cover=1
		4:[f22175<5] yes=7,no=8,missing=7,gain=421.472,cover=3
			7:leaf=32.6047,cover=2
			8:leaf=4.00634,cover=1
	2:leaf=37.576,cover=1
booster[8]
0:[f23128<0.9645] yes=1,no=2,missing=1,gain=2682.08,cover=24116
	1:[f19732<-1e-005] yes=3,no=4,missing=3,gain=2712.09,cover=24052
		3:[f17476<-1e-005] yes=7,no=8,missing=7,gain=2390.12,cover=23709
			7:[f23602<2.3375] yes=15,no=16,missing=15,gain=2357.98,cover=23704
				15:[f23229<0.155] yes=29,no=30,missing=29,gain=2349.03,cover=21944
					29:[f15829<-1e-005] yes=53,no=54,missing=53,gain=2254.66,cover=21770
						53:[f18364<-1e-005] yes=83,no=84,missing=83,gain=2249.67,cover=21766
							83:[f462<-1e-005] yes=117,no=118,missing=117,gain=2198.71,cover=21758
								117:[f20756<-1e-005] yes=143,no=144,missing=143,gain=2152.43,cover=21755
									143:[f22427<4.00001] yes=169,no=170,missing=170,gain=2115.9,cover=21746
										169:leaf=10.997,cover=16
										170:leaf=-0.163751,cover=21730
									144:[f22175<6] yes=171,no=172,missing=171,gain=938.823,cover=9
										171:leaf=20.8629,cover=6
										172:leaf=-0.211131,cover=3
								118:[f22175<2] yes=145,no=146,missing=145,gain=1315.07,cover=3
									145:leaf=41.548,cover=1
									146:[f22175<4] yes=173,no=174,missing=173,gain=35.896,cover=2
										173:leaf=-0.806419,cover=1
										174:leaf=5.85676,cover=1
							84:[f23659<-1e-005] yes=119,no=120,missing=119,gain=1452.16,cover=8
								119:[f7926<-1e-005] yes=147,no=148,missing=147,gain=106.259,cover=2
									147:leaf=-9.9483,cover=1
									148:leaf=1.46443,cover=1
								120:[f22175<1.5] yes=149,no=150,missing=149,gain=2736.33,cover=6
									149:[f7928<-1e-005] yes=175,no=176,missing=175,gain=823.592,cover=3
										175:leaf=48.424,cover=2
										176:leaf=6.75034,cover=1
									150:[f22175<3] yes=177,no=178,missing=177,gain=27.9118,cover=3
										177:leaf=2.73953,cover=1
										178:leaf=-2.08593,cover=2
						54:leaf=21.1002,cover=4
					30:[f17147<-1e-005] yes=55,no=56,missing=55,gain=983.397,cover=174
						55:[f5941<-1e-005] yes=85,no=86,missing=85,gain=808.326,cover=171
							85:[f22619<24.46] yes=121,no=122,missing=121,gain=544.794,cover=170
								121:[f23603<284] yes=151,no=152,missing=152,gain=177.58,cover=151
									151:[f23128<0.4735] yes=179,no=180,missing=180,gain=200.426,cover=145
										179:leaf=6.1204,cover=10
										180:leaf=1.63933,cover=135
									152:[f22175<17.5] yes=181,no=182,missing=181,gain=23.1233,cover=6
										181:leaf=9.24437,cover=3
										182:leaf=3.384,cover=3
								122:[f22175<15] yes=153,no=154,missing=153,gain=466.678,cover=19
									153:[f18653<-1e-005] yes=183,no=184,missing=183,gain=144.695,cover=11
										183:leaf=13.3975,cover=9
										184:leaf=2.51891,cover=2
									154:[f22175<37.5] yes=185,no=186,missing=185,gain=0.173709,cover=8
										185:leaf=2.16141,cover=3
										186:leaf=1.09266,cover=5
							86:leaf=23.2545,cover=1
						56:[f22175<8] yes=87,no=88,missing=87,gain=35.495,cover=3
							87:leaf=21.9134,cover=2
							88:leaf=5.37846,cover=1
				16:[f23097<57.15] yes=31,no=32,missing=31,gain=2411.12,cover=1760
					31:[f12514<-1e-005] yes=57,no=58,missing=57,gain=2354.29,cover=1750
						57:[f14122<-1e-005] yes=89,no=90,missing=89,gain=1952.01,cover=1747
							89:[f1740<-1e-005] yes=123,no=124,missing=123,gain=1824.7,cover=1746
								123:[f18667<-1e-005] yes=155,no=156,missing=155,gain=1509.82,cover=1745
									155:[f3029<-1e-005] yes=187,no=188,missing=187,gain=1462.98,cover=1742
										187:leaf=0.974797,cover=1741
										188:leaf=-26.095,cover=1
									156:leaf=20.4011,cover=3
								124:leaf=31.2205,cover=1
							90:leaf=32.2926,cover=1
						58:[f22175<2] yes=91,no=92,missing=91,gain=4423.21,cover=3
							91:leaf=-56.7502,cover=1
							92:leaf=6.85674,cover=2
					32:[f23636<-1e-005] yes=59,no=60,missing=59,gain=507.68,cover=10
						59:[f12738<-1e-005] yes=93,no=94,missing=93,gain=171.578,cover=3
							93:leaf=30.1474,cover=2
							94:leaf=6.0436,cover=1
						60:[f22175<4] yes=95,no=96,missing=95,gain=246.883,cover=7
							95:leaf=13.3171,cover=4
							96:[f8759<-1e-005] yes=125,no=126,missing=125,gain=4.5159,cover=3
								125:leaf=1.96294,cover=2
								126:leaf=-0.264265,cover=1
			8:[f22175<4] yes=17,no=18,missing=17,gain=1649.07,cover=5
				17:leaf=36.5675,cover=2
				18:[f22175<6] yes=33,no=34,missing=33,gain=133.965,cover=3
					33:leaf=8.45267,cover=1
					34:leaf=-2.30785,cover=2
		4:[f23135<52.385] yes=9,no=10,missing=9,gain=3387.08,cover=343
			9:[f22595<152] yes=19,no=20,missing=20,gain=3145.38,cover=330
				19:[f1958<-1e-005] yes=35,no=36,missing=35,gain=243.918,cover=5
					35:[f22175<2.5] yes=61,no=62,missing=61,gain=944.143,cover=4
						61:leaf=4.13114,cover=2
						62:leaf=-22.2307,cover=2
					36:leaf=-30.7066,cover=1
				20:[f22172<2.5] yes=37,no=38,missing=38,gain=3064.75,cover=325
					37:[f23603<137] yes=63,no=64,missing=64,gain=1525.67,cover=45
						63:[f22175<1.5] yes=97,no=98,missing=97,gain=605.89,cover=33
							97:[f22435<3.5] yes=127,no=128,missing=128,gain=1416.98,cover=9
								127:leaf=32.5861,cover=2
								128:[f18219<-1e-005] yes=157,no=158,missing=157,gain=224.575,cover=7
									157:[f5256<-1e-005] yes=189,no=190,missing=189,gain=39.8571,cover=3
										189:leaf=1.51694,cover=2
										190:leaf=-4.30553,cover=1
									158:[f1826<-1e-005] yes=191,no=192,missing=191,gain=12.1394,cover=4
										191:leaf=10.7484,cover=3
										192:leaf=2.56343,cover=1
							98:[f17569<-1e-005] yes=129,no=130,missing=129,gain=1169.54,cover=24
								129:[f17233<-1e-005] yes=159,no=160,missing=159,gain=403.4,cover=23
									159:[f22175<2.5] yes=193,no=194,missing=193,gain=377.021,cover=20
										193:leaf=-4.9224,cover=3
										194:leaf=6.05358,cover=17
									160:leaf=15.7204,cover=3
								130:leaf=-19.044,cover=1
						64:[f22175<2.5] yes=99,no=100,missing=99,gain=1019.64,cover=12
							99:[f8757<-1e-005] yes=131,no=132,missing=131,gain=4.36387,cover=6
								131:leaf=31.3295,cover=5
								132:leaf=8.8283,cover=1
							100:[f22175<4.5] yes=133,no=134,missing=133,gain=366.722,cover=6
								133:[f9067<-1e-005] yes=161,no=162,missing=161,gain=136.315,cover=4
									161:[f2068<-1e-005] yes=195,no=196,missing=195,gain=17.9644,cover=3
										195:leaf=-2.81502,cover=2
										196:leaf=1.24107,cover=1
									162:leaf=8.78572,cover=1
								134:leaf=17.6619,cover=2
					38:[f18599<-1e-005] yes=65,no=66,missing=65,gain=1556.98,cover=280
						65:[f507<-1e-005] yes=101,no=102,missing=101,gain=1501.29,cover=278
							101:[f1781<-1e-005] yes=135,no=136,missing=135,gain=1393.42,cover=277
								135:[f996<-1e-005] yes=163,no=164,missing=163,gain=1393.31,cover=276
									163:[f588<-1e-005] yes=197,no=198,missing=197,gain=1016.12,cover=275
										197:leaf=2.30702,cover=273
										198:leaf=20.8688,cover=2
									164:leaf=-24.0241,cover=1
								136:leaf=-24.1996,cover=1
							102:leaf=29.699,cover=1
						66:leaf=25.3108,cover=2
			10:[f22175<15.5] yes=21,no=22,missing=21,gain=1085.99,cover=13
				21:[f23603<188.5] yes=39,no=40,missing=40,gain=741.396,cover=10
					39:[f10771<-1e-005] yes=67,no=68,missing=67,gain=21.0187,cover=3
						67:[f22175<7] yes=103,no=104,missing=103,gain=4.96542,cover=2
							103:leaf=0.925737,cover=1
							104:leaf=-1.31382,cover=1
						68:leaf=-4.98364,cover=1
					40:leaf=-22.1342,cover=7
				22:[f22175<22.5] yes=41,no=42,missing=41,gain=4.37641,cover=3
					41:leaf=4.0752,cover=2
					42:leaf=0.701028,cover=1
	2:[f22172<29] yes=5,no=6,missing=5,gain=2251.68,cover=64
		5:[f11525<-1e-005] yes=11,no=12,missing=11,gain=2035.53,cover=40
			11:[f23605<69.85] yes=23,no=24,missing=24,gain=1314.46,cover=39
				23:[f16991<-1e-005] yes=43,no=44,missing=43,gain=256.382,cover=9
					43:[f22175<2.5] yes=69,no=70,missing=69,gain=262.198,cover=5
						69:leaf=9.84909,cover=2
						70:[f9888<-1e-005] yes=105,no=106,missing=105,gain=41.3763,cover=3
							105:leaf=-4.68067,cover=2
							106:leaf=1.59522,cover=1
					44:[f22175<6] yes=71,no=72,missing=71,gain=117.702,cover=4
						71:leaf=-10.5817,cover=2
						72:[f22175<8] yes=107,no=108,missing=107,gain=4.0251,cover=2
							107:leaf=0.688602,cover=1
							108:leaf=-1.35413,cover=1
				24:[f23095<62.7] yes=45,no=46,missing=45,gain=1142.76,cover=30
					45:[f6035<-1e-005] yes=73,no=74,missing=73,gain=123.3,cover=14
						73:[f22175<1.5] yes=109,no=110,missing=109,gain=70.797,cover=13
							109:[f18238<-1e-005] yes=137,no=138,missing=137,gain=270.743,cover=4
								137:leaf=-37.796,cover=2
								138:leaf=-11.8466,cover=2
							110:[f22175<2.5] yes=139,no=140,missing=139,gain=1085.29,cover=9
								139:[f136<-1e-005] yes=165,no=166,missing=165,gain=153.315,cover=2
									165:leaf=-4.28548,cover=1
									166:leaf=8.31302,cover=1
								140:leaf=-22.1463,cover=7
						74:leaf=-4.67153,cover=1
					46:[f22175<6] yes=75,no=76,missing=75,gain=446.556,cover=16
						75:[f22175<2.5] yes=111,no=112,missing=111,gain=583.121,cover=12
							111:[f22172<3] yes=141,no=142,missing=141,gain=488.833,cover=7
								141:[f22175<1.5] yes=167,no=168,missing=167,gain=40.1405,cover=5
									167:[f350<-1e-005] yes=199,no=200,missing=199,gain=784.133,cover=3
										199:leaf=-20.1422,cover=2
										200:leaf=7.10555,cover=1
									168:[f350<-1e-005] yes=201,no=202,missing=201,gain=1085.39,cover=2
										201:leaf=14.0266,cover=1
										202:leaf=-19.0458,cover=1
								142:leaf=6.55285,cover=2
							112:leaf=-18.9353,cover=5
						76:[f16085<-1e-005] yes=113,no=114,missing=113,gain=514.806,cover=4
							113:leaf=-8.91004,cover=2
							114:leaf=9.61843,cover=2
			12:leaf=21.3634,cover=1
		6:[f23605<146.05] yes=13,no=14,missing=14,gain=389.288,cover=24
			13:[f23603<131] yes=25,no=26,missing=26,gain=214.96,cover=16
				25:[f23542<-1e-005] yes=47,no=48,missing=47,gain=113.883,cover=7
					47:[f6052<-1e-005] yes=77,no=78,missing=77,gain=1.20087,cover=4
						77:leaf=-1.40658,cover=3
						78:leaf=-0.0868578,cover=1
					48:leaf=6.15147,cover=3
				26:[f22175<3] yes=49,no=50,missing=49,gain=93.0354,cover=9
					49:[f15283<-1e-005] yes=79,no=80,missing=79,gain=47.816,cover=7
						79:[f22173<5.5] yes=115,no=116,missing=116,gain=8.88857,cover=6
							115:leaf=-4.06306,cover=4
							116:leaf=-0.928836,cover=2
						80:leaf=2.50175,cover=1
					50:leaf=-9.44753,cover=2
			14:[f9227<-1e-005] yes=27,no=28,missing=27,gain=79.8101,cover=8
				27:[f23660<2.00001] yes=51,no=52,missing=52,gain=47.8516,cover=7
					51:leaf=3.03709,cover=3
					52:[f3659<-1e-005] yes=81,no=82,missing=81,gain=54.4254,cover=4
						81:leaf=11.4243,cover=3
						82:leaf=1.4349,cover=1
				28:leaf=-1.00235,cover=1
booster[9]
0:[f2467<-1e-005] yes=1,no=2,missing=1,gain=2094.24,cover=24116
	1:[f18432<-1e-005] yes=3,no=4,missing=3,gain=2052.66,cover=24114
		3:[f14011<-1e-005] yes=5,no=6,missing=5,gain=1997.11,cover=24111
			5:[f20514<-1e-005] yes=7,no=8,missing=7,gain=1923.3,cover=24110
				7:[f3725<-1e-005] yes=9,no=10,missing=9,gain=1918.2,cover=24107
					9:[f9281<-1e-005] yes=11,no=12,missing=11,gain=1913.17,cover=24103
						11:[f7641<-1e-005] yes=15,no=16,missing=15,gain=1848,cover=24102
							15:[f4692<-1e-005] yes=19,no=20,missing=19,gain=1738.41,cover=24101
								19:[f4425<-1e-005] yes=21,no=22,missing=21,gain=1685.07,cover=24097
									21:[f7956<-1e-005] yes=25,no=26,missing=25,gain=1683.25,cover=24096
										25:leaf=0.00243899,cover=24095
										26:leaf=29.0144,cover=1
									22:leaf=29.0325,cover=1
								20:[f22175<3] yes=23,no=24,missing=23,gain=2588.91,cover=4
									23:leaf=-46.5098,cover=1
									24:[f22175<12.5] yes=27,no=28,missing=27,gain=1.88757,cover=3
										27:leaf=0.464921,cover=2
										28:leaf=-0.78983,cover=1
							16:leaf=-30.3953,cover=1
						12:leaf=30.9309,cover=1
					10:[f22175<4] yes=13,no=14,missing=13,gain=37.4438,cover=4
						13:leaf=24.0439,cover=2
						14:[f22175<6] yes=17,no=18,missing=17,gain=25.9586,cover=2
							17:leaf=1.94193,cover=1
							18:leaf=10.9727,cover=1
				8:leaf=-21.922,cover=3
			6:leaf=31.6051,cover=1
		4:leaf=22.6615,cover=3
	2:leaf=26.4331,cover=2
booster[10]
0:[f8631<-1e-005] yes=1,no=2,missing=1,gain=1642.37,cover=24116
	1:[f3173<-1e-005] yes=3,no=4,missing=3,gain=1627.44,cover=24114
		3:[f5755<-1e-005] yes=5,no=6,missing=5,gain=1593.21,cover=24113
			5:[f22194<-1e-005] yes=7,no=8,missing=7,gain=1586.92,cover=24111
				7:[f9425<-1e-005] yes=11,no=12,missing=11,gain=1581,cover=24092
					11:[f1473<-1e-005] yes=15,no=16,missing=15,gain=1574,cover=24091
						15:[f16102<-1e-005] yes=19,no=20,missing=19,gain=1573.45,cover=24088
							19:[f4459<-1e-005] yes=25,no=26,missing=25,gain=1559.72,cover=24085
								25:[f22172<1.5] yes=29,no=30,missing=30,gain=1521.82,cover=24084
									29:[f21378<-1e-005] yes=33,no=34,missing=33,gain=2410,cover=4072
										33:leaf=-0.640554,cover=4039
										34:leaf=7.81453,cover=33
									30:[f22172<7.5] yes=35,no=36,missing=36,gain=1612.58,cover=20012
										35:leaf=1.11762,cover=1445
										36:leaf=0.0212321,cover=18567
								26:leaf=-27.9401,cover=1
							20:[f22175<4] yes=27,no=28,missing=27,gain=1001.67,cover=3
								27:leaf=35.7248,cover=1
								28:[f22175<8] yes=31,no=32,missing=31,gain=11.5828,cover=2
									31:leaf=4.00005,cover=1
									32:leaf=-0.0854073,cover=1
						16:[f22175<4] yes=21,no=22,missing=21,gain=163.707,cover=3
							21:leaf=23.846,cover=2
							22:leaf=3.88398,cover=1
					12:leaf=28.1083,cover=1
				8:[f22175<3] yes=13,no=14,missing=13,gain=553.615,cover=19
					13:leaf=19.7648,cover=3
					14:[f22175<12.5] yes=17,no=18,missing=17,gain=219.563,cover=16
						17:leaf=7.82097,cover=12
						18:[f2407<-1e-005] yes=23,no=24,missing=23,gain=3.76133,cover=4
							23:leaf=0.714901,cover=1
							24:leaf=-1.01547,cover=3
			6:[f22175<3] yes=9,no=10,missing=9,gain=96.07,cover=2
				9:leaf=28.4038,cover=1
				10:leaf=6.16738,cover=1
		4:leaf=-28.5231,cover=1
	2:leaf=23.4008,cover=2
booster[11]
0:[f19725<-1e-005] yes=1,no=2,missing=1,gain=1743.84,cover=24116
	1:[f23636<-1e-005] yes=3,no=4,missing=3,gain=2095.62,cover=23465
		3:[f22175<5.5] yes=7,no=8,missing=7,gain=1975.4,cover=10465
			7:[f9749<-1e-005] yes=15,no=16,missing=15,gain=2902.34,cover=5213
				15:[f22172<65.5] yes=31,no=32,missing=32,gain=2469.5,cover=5212
					31:[f23095<57.95] yes=61,no=62,missing=62,gain=3644.21,cover=1982
						61:[f17647<-1e-005] yes=117,no=118,missing=117,gain=1463.48,cover=31
							117:[f23603<64.5] yes=197,no=198,missing=198,gain=1584.47,cover=30
								197:[f4088<-1e-005] yes=293,no=294,missing=293,gain=965.502,cover=21
									293:[f23650<-1e-005] yes=415,no=416,missing=415,gain=348.447,cover=20
										415:leaf=17.9425,cover=18
										416:leaf=2.579,cover=2
									294:leaf=-8.83949,cover=1
								198:[f23099<32.25] yes=295,no=296,missing=296,gain=138.81,cover=9
									295:[f23095<54.65] yes=417,no=418,missing=418,gain=43.619,cover=6
										417:leaf=-5.43331,cover=3
										418:leaf=-0.287039,cover=3
									296:[f22175<4] yes=419,no=420,missing=419,gain=34.3744,cover=3
										419:leaf=0.770948,cover=2
										420:leaf=7.09494,cover=1
							118:leaf=-18.1794,cover=1
						62:[f23090<-1e-005] yes=119,no=120,missing=119,gain=2597.51,cover=1951
							119:[f23398<-1e-005] yes=199,no=200,missing=199,gain=2620.86,cover=1909
								199:[f22550<-1e-005] yes=297,no=298,missing=297,gain=2658.2,cover=1880
									297:[f22605<-1e-005] yes=421,no=422,missing=421,gain=2274.83,cover=1874
										421:leaf=-1.85608,cover=1870
										422:leaf=19.5176,cover=4
									298:[f22175<2] yes=423,no=424,missing=423,gain=2547.48,cover=6
										423:leaf=34.3013,cover=3
										424:leaf=-3.26641,cover=3
								200:[f23607<-1e-005] yes=299,no=300,missing=299,gain=1309.73,cover=29
									299:[f19733<-1e-005] yes=425,no=426,missing=425,gain=1156.53,cover=26
										425:leaf=-2.254,cover=12
										426:leaf=10.7606,cover=14
									300:[f16514<-1e-005] yes=427,no=428,missing=427,gain=329.452,cover=3
										427:leaf=30.2025,cover=2
										428:leaf=4.1001,cover=1
							120:[f22175<1.5] yes=201,no=202,missing=201,gain=1070.83,cover=42
								201:[f13440<-1e-005] yes=301,no=302,missing=301,gain=5858.31,cover=16
									301:[f22173<2.00001] yes=429,no=430,missing=430,gain=1879.98,cover=15
										429:leaf=-0.542382,cover=10
										430:leaf=-22.9889,cover=5
									302:leaf=48.4463,cover=1
								202:[f22175<2.5] yes=303,no=304,missing=303,gain=2584.57,cover=26
									303:[f13440<-1e-005] yes=431,no=432,missing=431,gain=3830.93,cover=5
										431:leaf=-10.8888,cover=4
										432:leaf=-68.2402,cover=1
									304:[f23605<133.35] yes=433,no=434,missing=434,gain=918.634,cover=21
										433:leaf=-19.664,cover=4
										434:leaf=-3.88259,cover=17
					32:[f18879<-1e-005] yes=63,no=64,missing=63,gain=1398.97,cover=3230
						63:[f4058<-1e-005] yes=121,no=122,missing=121,gain=1281.45,cover=3226
							121:[f22172<140.5] yes=203,no=204,missing=204,gain=1046.36,cover=3224
								203:[f22517<-1e-005] yes=305,no=306,missing=305,gain=1013.72,cover=306
									305:[f23605<133.35] yes=435,no=436,missing=435,gain=923.71,cover=295
										435:leaf=0.56936,cover=265
										436:leaf=6.34165,cover=30
									306:[f23633<-1e-005] yes=437,no=438,missing=437,gain=286.553,cover=11
										437:leaf=12.7481,cover=9
										438:leaf=-0.244135,cover=2
								204:[f13748<-1e-005] yes=307,no=308,missing=307,gain=1000.92,cover=2918
									307:[f1486<-1e-005] yes=439,no=440,missing=439,gain=839.667,cover=2916
										439:leaf=-0.426874,cover=2915
										440:leaf=20.0721,cover=1
									308:leaf=17.8637,cover=2
							122:[f22175<1.5] yes=205,no=206,missing=205,gain=140.286,cover=2
								205:leaf=4.69153,cover=1
								206:leaf=26.0102,cover=1
						64:[f23603<66.5] yes=123,no=124,missing=124,gain=329.497,cover=4
							123:leaf=23.4328,cover=2
							124:leaf=4.14997,cover=2
				16:leaf=-38.809,cover=1
			8:[f22176<1.5] yes=17,no=18,missing=18,gain=1688.25,cover=5252
				17:[f23605<146.05] yes=33,no=34,missing=33,gain=958.784,cover=906
					33:[f22639<60.55] yes=65,no=66,missing=66,gain=720.948,cover=885
						65:[f23607<-1e-005] yes=125,no=126,missing=125,gain=59.0224,cover=25
							125:[f16677<-1e-005] yes=207,no=208,missing=207,gain=8.8816,cover=16
								207:leaf=2.87377,cover=13
								208:[f22175<17.5] yes=309,no=310,missing=309,gain=0.463246,cover=3
									309:leaf=0.04603,cover=1
									310:leaf=0.881561,cover=2
							126:leaf=5.9558,cover=9
						66:[f15236<-1e-005] yes=127,no=128,missing=127,gain=514.284,cover=860
							127:[f23294<-1e-005] yes=209,no=210,missing=209,gain=472.82,cover=859
								209:[f23128<0.791] yes=311,no=312,missing=312,gain=449.708,cover=845
									311:[f16683<-1e-005] yes=441,no=442,missing=441,gain=242.174,cover=8
										441:leaf=-13.2838,cover=4
										442:leaf=-2.17434,cover=4
									312:[f23384<-1e-005] yes=443,no=444,missing=443,gain=424.014,cover=837
										443:leaf=-1.37494,cover=826
										444:leaf=-7.37727,cover=11
								210:[f16058<-1e-005] yes=313,no=314,missing=313,gain=106.293,cover=14
									313:[f16964<-1e-005] yes=445,no=446,missing=445,gain=26.0995,cover=9
										445:leaf=7.2237,cover=6
										446:leaf=2.4076,cover=3
									314:[f22175<17.5] yes=447,no=448,missing=447,gain=0.33895,cover=5
										447:leaf=-0.123377,cover=1
										448:leaf=0.419033,cover=4
							128:leaf=14.6423,cover=1
					34:[f22888<0.9735] yes=67,no=68,missing=67,gain=1239.77,cover=21
						67:[f22173<9] yes=129,no=130,missing=130,gain=274.806,cover=19
							129:leaf=-6.73065,cover=2
							130:[f23603<113.5] yes=211,no=212,missing=212,gain=230.293,cover=17
								211:[f23484<-1e-005] yes=315,no=316,missing=315,gain=85.7751,cover=12
									315:[f23603<69] yes=449,no=450,missing=450,gain=47.8004,cover=8
										449:leaf=3.73849,cover=4
										450:leaf=10.0927,cover=4
									316:[f22175<17.5] yes=451,no=452,missing=451,gain=2.41437,cover=4
										451:leaf=2.57814,cover=1
										452:leaf=0.725142,cover=3
								212:[f23341<-1e-005] yes=317,no=318,missing=317,gain=16.2822,cover=5
									317:[f22175<15] yes=453,no=454,missing=453,gain=5.62499,cover=3
										453:leaf=-0.408834,cover=1
										454:leaf=-3.63648,cover=2
									318:[f9228<-1e-005] yes=455,no=456,missing=455,gain=1.64196,cover=2
										455:leaf=-0.369086,cover=1
										456:leaf=0.956413,cover=1
						68:leaf=24.3706,cover=2
				18:[f22176<3.5] yes=35,no=36,missing=36,gain=915.169,cover=4346
					35:[f12815<-1e-005] yes=69,no=70,missing=69,gain=519.082,cover=3928
						69:[f23661<6.00001] yes=131,no=132,missing=132,gain=514.988,cover=3927
							131:[f1244<-1e-005] yes=213,no=214,missing=213,gain=23.961,cover=5
								213:leaf=-11.9407,cover=2
								214:[f22175<7.5] yes=319,no=320,missing=319,gain=6.01717,cover=3
									319:leaf=-1.03941,cover=1
									320:leaf=-5.38091,cover=2
							132:[f23603<233.5] yes=215,no=216,missing=215,gain=401.64,cover=3922
								215:[f22172<11.5] yes=321,no=322,missing=321,gain=329.924,cover=3857
									321:[f22888<0.0365] yes=457,no=458,missing=458,gain=246.547,cover=3540
										457:leaf=2.54491,cover=44
										458:leaf=0.188977,cover=3496
									322:[f19737<-1e-005] yes=459,no=460,missing=459,gain=376.6,cover=317
										459:leaf=0.321547,cover=179
										460:leaf=2.51756,cover=138
								216:[f23603<347] yes=323,no=324,missing=324,gain=21.38,cover=65
									323:[f19583<-1e-005] yes=461,no=462,missing=461,gain=1.36924,cover=59
										461:leaf=-2.39944,cover=57
										462:leaf=-0.849057,cover=2
									324:[f22175<17.5] yes=463,no=464,missing=463,gain=1.37859,cover=6
										463:leaf=-0.710974,cover=3
										464:leaf=0.146261,cover=3
						70:leaf=16.3662,cover=1
					36:[f23602<3.45] yes=71,no=72,missing=71,gain=565.373,cover=418
						71:[f22172<259] yes=133,no=134,missing=133,gain=460.91,cover=404
							133:[f23659<-1e-005] yes=217,no=218,missing=217,gain=263.132,cover=338
								217:[f23601<69.85] yes=325,no=326,missing=325,gain=184.679,cover=147
									325:[f23471<-1e-005] yes=465,no=466,missing=465,gain=113.166,cover=110
										465:leaf=2.5495,cover=107
										466:leaf=-2.99897,cover=3
									326:[f23604<1.5] yes=467,no=468,missing=468,gain=226.276,cover=37
										467:leaf=-1.74709,cover=4
										468:leaf=5.83426,cover=33
								218:[f12607<-1e-005] yes=327,no=328,missing=327,gain=273.234,cover=191
									327:[f23617<-1e-005] yes=469,no=470,missing=469,gain=320.583,cover=190
										469:leaf=1.54104,cover=174
										470:leaf=-3.01678,cover=16
									328:leaf=12.9274,cover=1
							134:[f23605<82.55] yes=219,no=220,missing=219,gain=279.823,cover=66
								219:[f4196<-1e-005] yes=329,no=330,missing=329,gain=137.527,cover=24
									329:[f23605<58.4] yes=471,no=472,missing=471,gain=103.078,cover=23
										471:leaf=2.21424,cover=18
										472:leaf=-2.56747,cover=5
									330:leaf=9.84519,cover=1
								220:[f23602<1.88] yes=331,no=332,missing=331,gain=209.295,cover=42
									331:[f23601<69.85] yes=473,no=474,missing=473,gain=98.5036,cover=37
										473:leaf=-2.87605,cover=20
										474:leaf=0.343832,cover=17
									332:[f22173<62.5] yes=475,no=476,missing=476,gain=40.4837,cover=5
										475:leaf=-2.52054,cover=2
										476:leaf=-9.90535,cover=3
						72:[f6788<-1e-005] yes=135,no=136,missing=135,gain=95.7588,cover=14
							135:[f21603<-1e-005] yes=221,no=222,missing=221,gain=44.1431,cover=13
								221:[f8494<-1e-005] yes=333,no=334,missing=333,gain=4.16357,cover=11
									333:leaf=9.70371,cover=10
									334:leaf=2.63387,cover=1
								222:leaf=2.49823,cover=2
							136:leaf=-0.833159,cover=1
		4:[f23054<1.023] yes=9,no=10,missing=10,gain=1627.44,cover=13000
			9:[f23605<57.15] yes=19,no=20,missing=20,gain=961.373,cover=80
				19:[f23054<0.016] yes=37,no=38,missing=38,gain=148.207,cover=64
					37:[f9276<-1e-005] yes=73,no=74,missing=73,gain=82.9394,cover=15
						73:[f22172<762.5] yes=137,no=138,missing=137,gain=48.295,cover=14
							137:[f22172<4.5] yes=223,no=224,missing=224,gain=6.7947,cover=11
								223:leaf=-3.00689,cover=2
								224:leaf=-1.01547,cover=9
							138:leaf=2.42977,cover=3
						74:leaf=6.22653,cover=1
					38:[f12694<-1e-005] yes=75,no=76,missing=75,gain=135.575,cover=49
						75:[f22175<7.5] yes=139,no=140,missing=139,gain=112.808,cover=48
							139:[f3326<-1e-005] yes=225,no=226,missing=225,gain=441.245,cover=34
								225:[f17983<-1e-005] yes=335,no=336,missing=335,gain=65.4471,cover=31
									335:[f5423<-1e-005] yes=477,no=478,missing=477,gain=65.6052,cover=29
										477:leaf=4.28755,cover=28
										478:leaf=-2.29322,cover=1
									336:leaf=-1.36017,cover=2
								226:[f22175<2] yes=337,no=338,missing=337,gain=309.955,cover=3
									337:leaf=24.1903,cover=1
									338:[f22175<4] yes=479,no=480,missing=479,gain=4.38196,cover=2
										479:leaf=4.97215,cover=1
										480:leaf=0.958769,cover=1
							140:[f18601<-1e-005] yes=227,no=228,missing=227,gain=348.88,cover=14
								227:[f14640<-1e-005] yes=339,no=340,missing=339,gain=9.04327,cover=10
									339:leaf=4.88973,cover=9
									340:leaf=0.768138,cover=1
								228:[f3326<-1e-005] yes=341,no=342,missing=341,gain=45.7286,cover=4
									341:leaf=-1.1576,cover=2
									342:leaf=-8.0437,cover=2
						76:leaf=-4.76786,cover=1
				20:[f22175<3] yes=39,no=40,missing=39,gain=2743.92,cover=16
					39:leaf=34.4818,cover=3
					40:[f22175<22.5] yes=77,no=78,missing=77,gain=24.4912,cover=13
						77:[f9046<-1e-005] yes=141,no=142,missing=141,gain=52.1668,cover=4
							141:leaf=7.77444,cover=3
							142:leaf=-0.152159,cover=1
						78:[f9683<-1e-005] yes=143,no=144,missing=143,gain=13.6406,cover=9
							143:leaf=3.67439,cover=5
							144:leaf=0.954301,cover=4
			10:[f22922<-1e-005] yes=21,no=22,missing=21,gain=1459.19,cover=12920
				21:[f3529<-1e-005] yes=41,no=42,missing=41,gain=1339.17,cover=12904
					41:[f22172<1560] yes=79,no=80,missing=80,gain=1355.09,cover=12903
						79:[f2528<-1e-005] yes=145,no=146,missing=145,gain=1233.88,cover=4945
							145:[f2712<-1e-005] yes=229,no=230,missing=229,gain=1089.08,cover=4941
								229:[f23337<0.579] yes=343,no=344,missing=343,gain=1083.53,cover=4939
									343:[f22888<0.0325] yes=481,no=482,missing=481,gain=994.88,cover=4933
										481:leaf=0.691615,cover=4887
										482:leaf=-3.93226,cover=46
									344:[f11663<-1e-005] yes=483,no=484,missing=483,gain=322.335,cover=6
										483:leaf=19.1482,cover=3
										484:leaf=3.77769,cover=3
								230:[f22175<2] yes=345,no=346,missing=345,gain=13.9056,cover=2
									345:leaf=23.5403,cover=1
									346:leaf=6.05261,cover=1
							146:[f22175<3] yes=231,no=232,missing=231,gain=3.82559,cover=4
								231:leaf=19.8273,cover=2
								232:leaf=7.50156,cover=2
						80:[f17760<-1e-005] yes=147,no=148,missing=147,gain=1995.66,cover=7958
							147:[f19702<-1e-005] yes=233,no=234,missing=233,gain=982.193,cover=7933
								233:[f23603<233.5] yes=347,no=348,missing=347,gain=862.723,cover=7904
									347:[f23108<0.1615] yes=485,no=486,missing=486,gain=850.656,cover=7672
										485:leaf=-3.68554,cover=60
										486:leaf=0.0637167,cover=7612
									348:[f1022<-1e-005] yes=487,no=488,missing=487,gain=521.012,cover=232
										487:leaf=-2.10858,cover=229
										488:leaf=9.44352,cover=3
								234:[f22175<2.5] yes=349,no=350,missing=349,gain=439.906,cover=29
									349:[f4896<-1e-005] yes=489,no=490,missing=489,gain=318.369,cover=4
										489:leaf=18.4152,cover=3
										490:leaf=-0.786219,cover=1
									350:[f4896<-1e-005] yes=491,no=492,missing=491,gain=67.2286,cover=25
										491:leaf=4.50042,cover=21
										492:leaf=0.0348629,cover=4
							148:[f21917<-1e-005] yes=235,no=236,missing=235,gain=637.468,cover=25
								235:[f3577<-1e-005] yes=351,no=352,missing=351,gain=19.6435,cover=11
									351:leaf=3.45077,cover=8
									352:[f22175<7.5] yes=493,no=494,missing=493,gain=1.77697,cover=3
										493:leaf=-0.461633,cover=1
										494:leaf=0.79067,cover=2
								236:leaf=13.0402,cover=14
					42:leaf=-25.5969,cover=1
				22:[f19535<-1e-005] yes=43,no=44,missing=43,gain=270.163,cover=16
					43:[f22175<3.5] yes=81,no=82,missing=81,gain=183.55,cover=13
						81:leaf=17.0118,cover=4
						82:leaf=7.44967,cover=9
					44:[f5974<-1e-005] yes=83,no=84,missing=83,gain=0.782185,cover=3
						83:leaf=-0.0358851,cover=1
						84:leaf=0.951141,cover=2
	2:[f23070<1.0935] yes=5,no=6,missing=6,gain=1436.05,cover=651
		5:[f22175<19.5] yes=11,no=12,missing=11,gain=721.47,cover=379
			11:[f22175<1.5] yes=23,no=24,missing=23,gain=727.072,cover=317
				23:[f23604<5.5] yes=45,no=46,missing=46,gain=689.26,cover=59
					45:[f23604<3.5] yes=85,no=86,missing=86,gain=94.4958,cover=40
						85:[f22692<19.05] yes=149,no=150,missing=149,gain=13.7292,cover=20
							149:leaf=-1.00386,cover=2
							150:[f15333<-1e-005] yes=237,no=238,missing=237,gain=10.7582,cover=18
								237:leaf=-4.59044,cover=17
								238:leaf=-0.561602,cover=1
						86:[f22043<-1e-005] yes=151,no=152,missing=151,gain=36.615,cover=20
							151:[f22172<9] yes=239,no=240,missing=240,gain=22.2605,cover=18
								239:[f10181<-1e-005] yes=353,no=354,missing=353,gain=11.0038,cover=11
									353:[f11604<-1e-005] yes=495,no=496,missing=495,gain=6.696,cover=10
										495:leaf=-2.86624,cover=9
										496:leaf=-0.0749969,cover=1
									354:leaf=0.454986,cover=1
								240:[f23607<-1e-005] yes=355,no=356,missing=355,gain=7.23185,cover=7
									355:[f18599<-1e-005] yes=497,no=498,missing=497,gain=5.46846,cover=5
										497:leaf=1.27423,cover=3
										498:leaf=-0.556884,cover=2
									356:leaf=-1.3311,cover=2
							152:leaf=2.31205,cover=2
					46:[f10182<-1e-005] yes=87,no=88,missing=87,gain=56.5855,cover=19
						87:[f22172<1.5] yes=153,no=154,missing=153,gain=34.2202,cover=18
							153:leaf=5.65243,cover=14
							154:[f10567<-1e-005] yes=241,no=242,missing=241,gain=7.40247,cover=4
								241:leaf=2.365,cover=3
								242:leaf=-0.365675,cover=1
						88:leaf=-1.56062,cover=1
				24:[f22175<4.5] yes=47,no=48,missing=47,gain=755.001,cover=258
					47:[f22172<1.5] yes=89,no=90,missing=89,gain=206.288,cover=126
						89:[f22176<1.5] yes=155,no=156,missing=156,gain=197.036,cover=72
							155:[f23604<5.5] yes=243,no=244,missing=244,gain=44.0491,cover=43
								243:leaf=-7.71942,cover=15
								244:[f22175<2.5] yes=357,no=358,missing=357,gain=19.007,cover=28
									357:[f14913<-1e-005] yes=499,no=500,missing=499,gain=1.63888,cover=14
										499:leaf=-3.70483,cover=13
										500:leaf=-0.911934,cover=1
									358:leaf=-5.96124,cover=14
							156:[f23604<4.5] yes=245,no=246,missing=246,gain=126.112,cover=29
								245:[f11604<-1e-005] yes=359,no=360,missing=359,gain=1.7583,cover=18
									359:leaf=-4.22612,cover=17
									360:leaf=-1.07614,cover=1
								246:[f22175<2.5] yes=361,no=362,missing=361,gain=17.9749,cover=11
									361:[f7334<-1e-005] yes=501,no=502,missing=501,gain=1.88201,cover=5
										501:leaf=1.63842,cover=4
										502:leaf=0.0660677,cover=1
									362:[f22043<-1e-005] yes=503,no=504,missing=503,gain=2.51535,cover=6
										503:leaf=-1.49719,cover=3
										504:leaf=-0.204401,cover=3
						90:[f14911<-1e-005] yes=157,no=158,missing=157,gain=48.4814,cover=54
							157:[f22176<1.5] yes=247,no=248,missing=248,gain=61.7701,cover=52
								247:[f9379<-1e-005] yes=363,no=364,missing=363,gain=1.5537,cover=22
									363:leaf=-9.42842,cover=21
									364:leaf=-2.67672,cover=1
								248:[f22173<8.00001] yes=365,no=366,missing=366,gain=55.9528,cover=30
									365:leaf=-10.576,cover=3
									366:[f10180<-1e-005] yes=505,no=506,missing=505,gain=1.65281,cover=27
										505:leaf=-5.49121,cover=26
										506:leaf=-1.48923,cover=1
							158:leaf=-1.63223,cover=2
					48:[f22172<1.5] yes=91,no=92,missing=91,gain=120.096,cover=132
						91:[f23586<-1e-005] yes=159,no=160,missing=159,gain=38.7706,cover=77
							159:[f23602<1.065] yes=249,no=250,missing=249,gain=24.6132,cover=68
								249:[f23604<4.5] yes=367,no=368,missing=368,gain=13.0004,cover=17
									367:[f18022<-1e-005] yes=507,no=508,missing=507,gain=3.02594,cover=10
										507:leaf=-0.497995,cover=7
										508:leaf=-1.70936,cover=3
									368:[f23603<112.5] yes=509,no=510,missing=510,gain=4.71247,cover=7
										509:leaf=1.29558,cover=4
										510:leaf=-0.225878,cover=3
								250:[f18601<-1e-005] yes=369,no=370,missing=369,gain=21.7491,cover=51
									369:[f7334<-1e-005] yes=511,no=512,missing=511,gain=3.98762,cover=47
										511:leaf=-1.94622,cover=45
										512:leaf=-0.317792,cover=2
									370:leaf=0.444612,cover=4
							160:[f23603<138] yes=251,no=252,missing=252,gain=9.39448,cover=9
								251:[f22175<7.5] yes=371,no=372,missing=371,gain=6.23493,cover=6
									371:leaf=-5.37958,cover=3
									372:leaf=-2.05947,cover=3
								252:leaf=-1.39589,cover=3
						92:[f14911<-1e-005] yes=161,no=162,missing=161,gain=17.3003,cover=55
							161:[f23603<52] yes=253,no=254,missing=254,gain=5.93455,cover=54
								253:[f9379<-1e-005] yes=373,no=374,missing=373,gain=1.62812,cover=18
									373:leaf=-2.89371,cover=17
									374:leaf=-0.642269,cover=1
								254:leaf=-4.05039,cover=36
							162:leaf=0.25903,cover=1
			12:[f22172<1.5] yes=25,no=26,missing=26,gain=54.8911,cover=62
				25:[f22176<1.5] yes=49,no=50,missing=50,gain=7.81297,cover=26
					49:[f23602<1.065] yes=93,no=94,missing=93,gain=5.47324,cover=14
						93:[f9475<-1e-005] yes=163,no=164,missing=163,gain=0.376768,cover=4
							163:leaf=1.79561,cover=3
							164:leaf=0.420208,cover=1
						94:[f23603<131] yes=165,no=166,missing=166,gain=0.922256,cover=10
							165:[f5212<-1e-005] yes=255,no=256,missing=255,gain=1.39779,cover=7
								255:[f23603<115] yes=375,no=376,missing=376,gain=0.185643,cover=5
									375:leaf=-0.352833,cover=3
									376:[f10181<-1e-005] yes=513,no=514,missing=513,gain=0.00250766,cover=2
										513:leaf=0.0360286,cover=1
										514:leaf=-0.0154395,cover=1
								256:leaf=0.6085,cover=2
							166:leaf=0.668183,cover=3
					50:[f18599<-1e-005] yes=95,no=96,missing=95,gain=2.64191,cover=12
						95:leaf=2.19193,cover=9
						96:leaf=0.737898,cover=3
				26:[f22176<1.5] yes=51,no=52,missing=52,gain=12.5755,cover=36
					51:[f23604<8.5] yes=97,no=98,missing=98,gain=12.1299,cover=14
						97:[f9711<-1e-005] yes=167,no=168,missing=167,gain=4.04196,cover=12
							167:[f23603<124.5] yes=257,no=258,missing=258,gain=1.10124,cover=11
								257:leaf=-2.00881,cover=8
								258:leaf=-0.805481,cover=3
							168:leaf=0.165822,cover=1
						98:[f10179<-1e-005] yes=169,no=170,missing=169,gain=1.41198,cover=2
							169:leaf=1.23792,cover=1
							170:leaf=-0.115547,cover=1
					52:[f5443<-1e-005] yes=99,no=100,missing=99,gain=2.13643,cover=22
						99:[f22172<3.5] yes=171,no=172,missing=172,gain=1.10913,cover=21
							171:[f23603<86.5] yes=259,no=260,missing=260,gain=1.11354,cover=10
								259:[f23603<35.5] yes=377,no=378,missing=378,gain=0.204833,cover=7
									377:[f22175<35] yes=515,no=516,missing=515,gain=0.0364167,cover=3
										515:leaf=0.259095,cover=2
										516:leaf=0.0183563,cover=1
									378:[f12442<-1e-005] yes=517,no=518,missing=517,gain=0.0238855,cover=4
										517:leaf=-0.136197,cover=3
										518:leaf=0.0196884,cover=1
								260:leaf=-0.61783,cover=3
							172:[f22175<35] yes=261,no=262,missing=261,gain=0.389065,cover=11
								261:[f11538<-1e-005] yes=379,no=380,missing=379,gain=0.153038,cover=9
									379:[f23602<1.065] yes=519,no=520,missing=519,gain=0.21159,cover=8
										519:leaf=0.553823,cover=3
										520:leaf=0.181408,cover=5
									380:leaf=-0.0233746,cover=1
								262:leaf=-0.112773,cover=2
						100:leaf=-1.04596,cover=1
		6:[f22175<1.5] yes=13,no=14,missing=13,gain=875.499,cover=272
			13:[f23603<101] yes=27,no=28,missing=28,gain=341.357,cover=49
				27:[f23605<69.85] yes=53,no=54,missing=53,gain=288.062,cover=18
					53:[f22721<0.0395] yes=101,no=102,missing=101,gain=30.2122,cover=12
						101:[f13442<-1e-005] yes=173,no=174,missing=173,gain=13.7811,cover=8
							173:[f23605<44.45] yes=263,no=264,missing=264,gain=1.7112,cover=7
								263:leaf=-1.59866,cover=2
								264:leaf=-4.32061,cover=5
							174:leaf=0.0491056,cover=1
						102:[f18604<-1e-005] yes=175,no=176,missing=175,gain=10.915,cover=4
							175:leaf=1.28313,cover=2
							176:leaf=-1.41504,cover=2
					54:[f13160<-1e-005] yes=103,no=104,missing=103,gain=16.5966,cover=6
						103:leaf=6.22705,cover=5
						104:leaf=0.824934,cover=1
				28:[f22435<3.5] yes=55,no=56,missing=55,gain=51.5784,cover=31
					55:[f1665<-1e-005] yes=105,no=106,missing=105,gain=42.4461,cover=17
						105:[f23605<114.3] yes=177,no=178,missing=178,gain=37.3047,cover=16
							177:[f1514<-1e-005] yes=265,no=266,missing=265,gain=34.9362,cover=14
								265:[f14658<-1e-005] yes=381,no=382,missing=381,gain=11.6791,cover=13
									381:leaf=8.89608,cover=12
									382:leaf=2.09918,cover=1
								266:leaf=1.11433,cover=1
							178:leaf=2.0998,cover=2
						106:leaf=0.410496,cover=1
					56:[f23604<5.5] yes=107,no=108,missing=108,gain=30.5952,cover=14
						107:[f19497<-1e-005] yes=179,no=180,missing=179,gain=3.54522,cover=4
							179:leaf=1.89935,cover=2
							180:[f10872<-1e-005] yes=267,no=268,missing=267,gain=0.116503,cover=2
								267:leaf=0.265805,cover=1
								268:leaf=-0.090251,cover=1
						108:[f10817<-1e-005] yes=181,no=182,missing=181,gain=7.37895,cover=10
							181:[f2404<-1e-005] yes=269,no=270,missing=269,gain=4.55232,cover=9
								269:leaf=5.4191,cover=8
								270:leaf=1.24946,cover=1
							182:leaf=0.968275,cover=1
			14:[f22175<15] yes=29,no=30,missing=29,gain=343.151,cover=223
				29:[f23601<22.225] yes=57,no=58,missing=57,gain=359.03,cover=174
					57:[f23604<5] yes=109,no=110,missing=109,gain=205.725,cover=78
						109:[f22175<7.5] yes=183,no=184,missing=183,gain=108.996,cover=49
							183:[f23607<-1e-005] yes=271,no=272,missing=271,gain=43.5565,cover=37
								271:[f1514<-1e-005] yes=383,no=384,missing=383,gain=7.0171,cover=32
									383:[f11427<-1e-005] yes=521,no=522,missing=521,gain=5.15387,cover=29
										521:leaf=-4.58915,cover=28
										522:leaf=-0.952229,cover=1
									384:[f22175<2.5] yes=523,no=524,missing=523,gain=5.60753,cover=3
										523:leaf=0.110408,cover=1
										524:leaf=-2.51948,cover=2
								272:[f22175<4] yes=385,no=386,missing=385,gain=2.46944,cover=5
									385:leaf=-8.6365,cover=4
									386:leaf=-2.32335,cover=1
							184:[f23081<1.0935] yes=273,no=274,missing=274,gain=16.672,cover=12
								273:leaf=0.902852,cover=2
								274:[f13450<-1e-005] yes=387,no=388,missing=387,gain=6.63393,cover=10
									387:[f13442<-1e-005] yes=525,no=526,missing=525,gain=5.17069,cover=9
										525:leaf=-2.38599,cover=8
										526:leaf=0.00547051,cover=1
									388:leaf=0.295151,cover=1
						110:[f23607<-1e-005] yes=185,no=186,missing=185,gain=44.3933,cover=29
							185:[f23604<6.5] yes=275,no=276,missing=276,gain=15.768,cover=18
								275:[f22175<4] yes=389,no=390,missing=389,gain=6.29437,cover=13
									389:[f22175<2.5] yes=527,no=528,missing=527,gain=6.38677,cover=6
										527:leaf=0.304892,cover=2
										528:leaf=-1.68003,cover=4
									390:[f14898<-1e-005] yes=529,no=530,missing=529,gain=3.4355,cover=7
										529:leaf=-0.223293,cover=5
										530:leaf=1.0974,cover=2
								276:[f5962<-1e-005] yes=391,no=392,missing=391,gain=0.738574,cover=5
									391:leaf=1.87009,cover=3
									392:leaf=0.595812,cover=2
							186:[f22175<4] yes=277,no=278,missing=277,gain=15.9074,cover=11
								277:leaf=-3.69746,cover=4
								278:[f22172<1.5] yes=393,no=394,missing=393,gain=2.99409,cover=7
									393:[f2404<-1e-005] yes=531,no=532,missing=531,gain=0.113304,cover=3
										531:leaf=-0.327017,cover=2
										532:leaf=0.0326517,cover=1
									394:[f10798<-1e-005] yes=533,no=534,missing=533,gain=1.3326,cover=4
										533:leaf=-1.85369,cover=3
										534:leaf=-0.25157,cover=1
					58:[f23607<-1e-005] yes=111,no=112,missing=111,gain=269.609,cover=96
						111:[f23288<49.215] yes=187,no=188,missing=188,gain=178.163,cover=66
							187:[f14996<-1e-005] yes=279,no=280,missing=279,gain=51.9132,cover=19
								279:[f22175<7.5] yes=395,no=396,missing=395,gain=18.4538,cover=16
									395:[f22172<40] yes=535,no=536,missing=536,gain=26.2401,cover=14
